{"learner":{"attributes":{"scikit_learn":"{\"_estimator_type\": \"regressor\"}"},"feature_names":["Df","Dif","PONAV_grav","PONAVF","density","total_SA_volumetric","total_POV_volumetric","total_POV_gravimetric","mc_CRY-chi-0-all","mc_CRY-chi-1-all","mc_CRY-chi-2-all","mc_CRY-Z-0-all","mc_CRY-Z-1-all","mc_CRY-I-1-all","mc_CRY-I-2-all","mc_CRY-T-0-all","mc_CRY-T-3-all","mc_CRY-S-0-all","mc_CRY-S-1-all","mc_CRY-S-3-all","D_mc_CRY-chi-1-all","D_mc_CRY-chi-2-all","D_mc_CRY-chi-3-all","D_mc_CRY-Z-1-all","D_mc_CRY-Z-2-all","D_mc_CRY-Z-3-all","D_mc_CRY-T-1-all","D_mc_CRY-T-3-all","D_mc_CRY-S-3-all","sum-mc_CRY-chi-1-all","sum-mc_CRY-Z-2-all","sum-mc_CRY-S-2-all","sum-D_mc_CRY-chi-2-all","sum-D_mc_CRY-Z-3-all","sum-D_mc_CRY-S-3-all","lc-chi-1-all","lc-chi-2-all","lc-Z-0-all","lc-T-0-all","lc-T-1-all","lc-T-2-all","D_lc-chi-2-all","D_lc-Z-1-all","D_lc-Z-3-all","D_lc-T-3-all","func-Z-2-all","func-T-3-all","D_func-T-2-all","f-lig-Z-0","f-lig-Z-1","f-lig-Z-2","f-lig-T-2","sum-lc-chi-0-all","sum-lc-Z-0-all","sum-lc-I-0-all","sum-lc-alpha-0-all","sum-lc-alpha-3-all","sum-D_lc-Z-1-all","sum-D_lc-alpha-1-all","sum-func-chi-2-all","sum-func-Z-1-all","sum-func-alpha-0-all","sum-f-lig-Z-0","sum-f-lig-Z-1","sum-f-lig-Z-2","sum-f-lig-I-0","sum-f-lig-I-2","sum-f-lig-S-0"],"feature_types":["float","float","float","float","float","float","float","float","float","float","float","float","float","float","float","float","float","float","float","float","float","float","float","float","float","float","float","float","float","float","float","float","float","float","float","float","float","float","float","float","float","float","float","float","float","float","float","float","float","float","float","float","float","float","float","float","float","float","float","float","float","float","float","float","float","float","float","float"],"gradient_booster":{"model":{"gbtree_model_param":{"num_parallel_tree":"1","num_trees":"100"},"iteration_indptr":[0,1,2,3,4,5,6,7,8,9,10,11,12,13,14,15,16,17,18,19,20,21,22,23,24,25,26,27,28,29,30,31,32,33,34,35,36,37,38,39,40,41,42,43,44,45,46,47,48,49,50,51,52,53,54,55,56,57,58,59,60,61,62,63,64,65,66,67,68,69,70,71,72,73,74,75,76,77,78,79,80,81,82,83,84,85,86,87,88,89,90,91,92,93,94,95,96,97,98,99,100],"tree_info":[0,0,0,0,0,0,0,0,0,0,0,0,0,0,0,0,0,0,0,0,0,0,0,0,0,0,0,0,0,0,0,0,0,0,0,0,0,0,0,0,0,0,0,0,0,0,0,0,0,0,0,0,0,0,0,0,0,0,0,0,0,0,0,0,0,0,0,0,0,0,0,0,0,0,0,0,0,0,0,0,0,0,0,0,0,0,0,0,0,0,0,0,0,0,0,0,0,0,0,0],"trees":[{"base_weights":[-0E0,-3.1273004E-1,4.3722197E-1,6.9621843E-1,-4.9394533E-1,-4.8422778E-1,6.786414E-1,2.870403E-1,2.540364E0,-1.1992826E0,-3.6013216E-1,2.9980722E-1,-6.625246E-1,1.7656945E0,4.7037834E-1,-9.6626717E-1,5.952075E-1,5.541252E-1,3.373752E0,-1.4342772E0,-9.7213435E-1,-9.9939454E-1,-2.7418923E-1,1.649653E-1,3.1808466E-1,-7.3979133E-1,7.199407E-1,5.997533E-1,2.3107224E0,6.698958E-1,-3.832732E-1,-1.0828838E0,2.4045889E-1,8.217914E-1,-5.947845E-1,2.2470896E-1,2.443063E-1,4.1371827E0,1.70651E0,-1.4394962E0,-0E0,-9.913992E-1,1.786844E-1,6.883003E-1,-1.098274E0,-2.2293766E-1,-1.1622851E0,6.1770666E-1,-7.1862704E-1,-3.3934975E-1,-9.825765E-1,9.526662E-1,-6.0360286E-2,1.0763948E0,-3.3483824E-1,2.5343513E0,-2.6945147E-1,1.674097E-1,1.0887791E0,1.6019978E-1,-5.005833E-1,-1.5462549E-1,-6.508819E-1,1.2325863E0,-3.5559696E-1,-1.477977E-1,-1.1071659E-1,-1.8653546E-1,1.069424E0,4.628099E0,6.971345E-1,6.272417E-1,2.1628108E0,-1.8592378E-2,-1.4473876E0,-7.761422E-1,-1.1436784E0,4.8559913E-1,2.3200883E-1,-9.574042E-1,-1.4943838E0,-2.3918081E-2,-3.7849993E-1,-1.2439861E0,-1.0793576E-1,1.5620804E0,-6.4232096E-2,-1.0267242E0,-5.978748E-2,1.2374351E0,-6.9426453E-1,-1.3335439E0,-7.395902E-1,-0E0,1.1286031E0,1.3868635E0,-7.0022595E-1,-6.0778004E-1,3.4113002E-1,2.8491917E0,8.764693E-1,3.7292483E-1,-1.058632E0,3.9587155E-1,-2.0003065E-1,1.679198E0,6.086174E-1,3.557332E-1,-1.13229565E-1,-3.5208228E-1,-8.3246255E-1,2.685786E-1,-1.0806507E0,9.725097E-1,3.3022106E0,-4.3566912E-1,1.4920299E-1,-3.8675877E-1,5.2189934E-1,1.0051165E-1,-4.909399E-1,1.7034492E-1,-6.1743908E-2,6.26041E-1,3.9778963E-1,-2.1801602E-2,1.5514411E-1,6.92618E-2,-0E0,2.8230828E-1,1.521745E-1,-1.3650432E-1,-0E0,-0E0,-8.271208E-1,-0E0,-1.1693246E0,-7.096268E-1,1.0474628E0,-7.263348E-1,-1.2676543E0,3.2708898E-1,-1.575839E0,2.0667806E-1,-3.3680493E-1,-7.9592043E-1,-2.9737404E-1,-1.2646729E0,-0E0,-3.068896E-1,-0E0,2.3228302E0,8.4478873E-1,6.848681E-1,-8.3005893E-1,-9.838567E-3,-1.1762035E-1,1.3326481E-1,-3.2298028E-1,1.8994509E0,-0E0,-9.889247E-1,-0E0,-1.374522E0,-0E0,-2.2315136E-1,-1.0866914E0,1.2701331E-1,-0E0,6.2581414E-1,1.8772422E0,-9.8949826E-1,3.0532658E-2,-1.4778124E-1,-1.0137787E0,-0E0,6.7530625E-2,4.5935197E0,2.5476239E0,-0E0,2.1198099E0,-0E0,-1.17631525E-1,8.580789E-2,9.3450564E-1,-9.9520825E-2,-7.4088E-1,2.3183546E0,1.0952371E0,1.6314828E0,2.4047728E-1,-6.518336E-1,6.388749E-1,7.861429E-2,-5.5439407E-1,-5.548719E-1,-1.0560463E-1,-1.1916614E-1,1.4185043E-1,-0E0,-1.0762994E-1,2.0073615E-2,1.3322042E-1,2.5018153E-1,4.7279692E-1,-5.808423E-2,3.690872E-2,-6.1095905E-2,-0E0,1.3031593E-1,-0E0,-0E0,1.1117391E-2,-0E0,-5.4430384E-2,-2.5961805E-2,2.4719674E-2,-7.990256E-2,-0E0,-4.0138192E-2,-0E0,-1.1107459E-1,-0E0,3.3688772E-2,-1.15347944E-1,1.2744108E-1,-0E0,-0E0,-8.144388E-2,-0E0,-1.2207615E-1,4.676173E-2,-0E0,-0E0,-1.5005478E-1,-2.3251815E-2,4.2222872E-2,-5.491549E-2,1.1306215E-2,-7.903398E-2,6.0719438E-2,-0E0,-4.0476296E-2,-0E0,-1.2004694E-1,-0E0,-3.5166234E-2,-0E0,2.6468834E-1,9.662916E-3,1.1585222E-1,-2.54395E-3,1.00587755E-1,-1.3590935E-1,-4.847225E-2,-0E0,1.9021735E-2,-0E0,-3.3731673E-2,-4.5443498E-2,2.2032844E-1,-1.9833568E-2,5.8054596E-2,-1.1043643E-1,-1.1543282E-2,1.095643E-1,-1.5247302E-2,-0E0,-1.3300754E-1,2.150392E-2,-0E0,9.06726E-2,-4.0885944E-2,2.8076333E-3,-1.1656136E-1,2.5666377E-1,3.5204492E-3,1.860926E-1,-0E0,-0E0,-1.13661535E-1,-2.311911E-2,-0E0,-1.0541827E-1,-0E0,-1.4222557E-4,-0E0,-0E0,4.5399934E-1,-1.4294486E-2,2.637303E-1,7.4598625E-2,-5.4397922E-2,2.1556707E-1,-0E0,4.4661004E-2,-6.298112E-2,-6.2255424E-2,2.5366284E-2,9.6933186E-2,-9.247782E-2,-2.8779134E-2,9.85946E-3,-0E0,-8.084133E-2,2.3757173E-1,3.478355E-2,1.7458783E-1,7.455543E-2,2.4105454E-2,1.970639E-1,3.5159495E-2,-1.1695348E-1,-0E0,-9.303949E-2,6.813222E-2,-1.369487E-2,-1.1332647E-2,1.5102342E-1,-4.5652766E-2,-1.1897443E-1,-4.2041526E-3,-7.968539E-2],"categories":[],"categories_nodes":[],"categories_segments":[],"categories_sizes":[],"default_left":[0,0,0,0,0,0,0,0,0,0,0,0,0,0,0,0,0,0,0,0,0,0,0,0,0,0,0,0,0,0,0,0,0,0,0,0,0,0,0,0,0,0,0,0,0,0,0,0,0,0,0,0,0,0,0,0,0,0,0,0,0,0,0,0,0,0,0,0,0,0,0,0,0,0,0,0,0,0,0,0,0,0,0,0,0,0,0,0,0,0,0,0,0,0,0,0,0,0,0,0,0,0,0,0,0,0,0,0,0,0,0,0,0,0,0,0,0,0,0,0,0,0,0,0,0,0,0,0,0,0,0,0,0,0,0,0,0,0,0,0,0,0,0,0,0,0,0,0,0,0,0,0,0,0,0,0,0,0,0,0,0,0,0,0,0,0,0,0,0,0,0,0,0,0,0,0,0,0,0,0,0,0,0,0,0,0,0,0,0,0,0,0,0,0,0,0,0,0,0,0,0,0,0,0,0,0,0,0,0,0,0,0,0,0,0,0,0,0,0,0,0,0,0,0,0,0,0,0,0,0,0,0,0,0,0,0,0,0,0,0,0,0,0,0,0,0,0,0,0,0,0,0,0,0,0,0,0,0,0,0,0,0,0,0,0,0,0,0,0,0,0,0,0,0,0,0,0,0,0,0,0,0,0,0,0,0,0,0,0,0,0,0,0,0,0,0,0,0,0,0,0,0,0,0,0,0,0,0,0,0,0,0,0,0,0,0,0,0,0,0,0,0,0],"id":0,"left_children":[1,3,5,7,9,11,13,15,17,19,21,23,25,27,29,31,33,35,37,39,41,43,45,47,-1,49,51,53,55,57,59,61,-1,63,65,-1,67,69,71,73,-1,75,-1,77,79,81,83,85,87,89,91,93,-1,95,97,99,101,103,105,107,109,-1,111,113,115,117,-1,119,121,123,125,127,129,-1,131,133,135,-1,137,139,141,143,145,147,149,151,153,155,157,159,161,163,165,-1,167,169,171,173,175,177,179,-1,181,183,185,187,189,191,-1,193,195,197,199,201,203,205,-1,207,209,211,213,-1,-1,-1,-1,-1,-1,-1,-1,-1,-1,-1,-1,215,217,219,221,223,225,227,229,231,233,235,237,239,241,243,-1,245,-1,247,249,251,253,-1,-1,255,257,259,261,263,265,267,269,271,273,-1,-1,275,277,279,-1,281,283,285,-1,287,289,291,293,295,-1,297,299,301,303,305,307,309,311,313,315,317,319,321,-1,-1,-1,-1,-1,-1,-1,-1,-1,-1,-1,-1,-1,-1,-1,-1,-1,-1,-1,-1,-1,-1,-1,-1,-1,-1,-1,-1,-1,-1,-1,-1,-1,-1,-1,-1,-1,-1,-1,-1,-1,-1,-1,-1,-1,-1,-1,-1,-1,-1,-1,-1,-1,-1,-1,-1,-1,-1,-1,-1,-1,-1,-1,-1,-1,-1,-1,-1,-1,-1,-1,-1,-1,-1,-1,-1,-1,-1,-1,-1,-1,-1,-1,-1,-1,-1,-1,-1,-1,-1,-1,-1,-1,-1,-1,-1,-1,-1,-1,-1,-1,-1,-1,-1,-1,-1,-1,-1,-1,-1,-1,-1,-1,-1,-1,-1,-1,-1,-1,-1,-1,-1,-1,-1,-1,-1,-1],"loss_changes":[6.836622E2,5.3276715E2,4.640149E2,3.3145334E2,2.3175641E2,6.0752388E1,3.7199152E2,1.3982982E2,1.284967E2,1.8571411E1,1.1294684E2,2.9290642E1,3.7726852E1,1.6548907E2,2.3668863E2,2.7697815E1,7.895985E1,1.1013556E1,6.543445E1,7.9248047E-1,1.02686E1,4.1295166E1,8.2091705E1,3.0302029E1,0E0,3.1247192E1,6.015479E0,3.8606087E1,1.06125305E2,2.3574765E2,1.7044155E1,1.4438599E1,0E0,1.1985864E2,1.0653103E1,0E0,8.348288E0,5.8848267E1,6.074421E0,2.168274E-1,0E0,4.6688232E0,0E0,2.115188E1,1.0493805E1,5.3313065E1,7.1760864E0,3.434211E1,3.9881544E0,7.108874E1,1.557988E1,3.311263E0,0E0,3.212699E1,5.4326496E0,8.292102E1,4.3884434E1,4.326019E1,1.7149554E2,1.1155858E1,9.51017E0,0E0,1.6618288E1,9.422699E1,8.646589E0,4.1857104E0,0E0,1.5263478E0,1.1400387E1,1.5767334E1,5.842845E0,3.5171747E-1,8.642998E-1,0E0,1.7123413E-1,2.9241867E0,2.719818E0,0E0,9.552164E0,1.0408264E1,1.0002502E1,5.525311E1,3.1788284E1,3.1231232E0,3.777052E-1,8.837334E0,1.678194E1,1.9499378E0,6.470053E-1,1.8900055E1,2.1759583E1,5.4319916E0,2.0917969E1,0E0,4.0583687E0,1.5783859E1,3.0366337E0,2.760377E0,1.2481471E0,6.597742E1,2.8688189E1,0E0,2.198513E0,5.2089146E1,9.75993E0,9.885486E1,1.2578116E2,1.1398409E1,0E0,1.3720299E1,3.5641518E0,2.3090586E1,2.6695442E0,5.332086E1,1.4460312E1,9.418832E0,0E0,1.9238625E0,2.206397E0,5.391646E-3,4.1693163E-1,0E0,0E0,0E0,0E0,0E0,0E0,0E0,0E0,0E0,0E0,0E0,0E0,4.4306457E-1,1.581295E0,1.8217883E-1,1.7183685E0,3.6286173E0,1.5024595E0,1.0471725E1,2.2616196E0,3.3290967E-2,1.0372925E0,4.837943E1,3.7288635E1,1.0205917E1,3.1859749E1,1.0896454E0,0E0,8.845672E-2,0E0,9.423023E0,2.1127892E0,4.877522E0,9.424639E-1,0E0,0E0,2.8551403E-2,1.7423391E-2,1.7710228E1,1.0291202E0,1.0589081E1,6.139546E0,5.00383E0,5.2289866E-2,1.2285452E1,1.3664543E1,0E0,0E0,2.1986454E1,7.450218E0,1.9114199E0,0E0,3.0372727E-1,1.032361E0,2.2873764E-6,0E0,2.0830505E1,8.516608E1,7.4164987E0,3.1173096E0,6.740901E-1,0E0,2.7530344E1,2.128019E1,7.2070384E0,2.5569935E0,4.977771E1,3.0504913E1,5.4444443E1,4.8627846E1,2.4740102E0,2.7286367E0,1.577964E1,3.3935585E0,4.330594E0,0E0,0E0,0E0,0E0,0E0,0E0,0E0,0E0,0E0,0E0,0E0,0E0,0E0,0E0,0E0,0E0,0E0,0E0,0E0,0E0,0E0,0E0,0E0,0E0,0E0,0E0,0E0,0E0,0E0,0E0,0E0,0E0,0E0,0E0,0E0,0E0,0E0,0E0,0E0,0E0,0E0,0E0,0E0,0E0,0E0,0E0,0E0,0E0,0E0,0E0,0E0,0E0,0E0,0E0,0E0,0E0,0E0,0E0,0E0,0E0,0E0,0E0,0E0,0E0,0E0,0E0,0E0,0E0,0E0,0E0,0E0,0E0,0E0,0E0,0E0,0E0,0E0,0E0,0E0,0E0,0E0,0E0,0E0,0E0,0E0,0E0,0E0,0E0,0E0,0E0,0E0,0E0,0E0,0E0,0E0,0E0,0E0,0E0,0E0,0E0,0E0,0E0,0E0,0E0,0E0,0E0,0E0,0E0,0E0,0E0,0E0,0E0,0E0,0E0,0E0,0E0,0E0,0E0,0E0,0E0,0E0,0E0,0E0,0E0,0E0,0E0,0E0],"parents":[2147483647,0,0,1,1,2,2,3,3,4,4,5,5,6,6,7,7,8,8,9,9,10,10,11,11,12,12,13,13,14,14,15,15,16,16,17,17,18,18,19,19,20,20,21,21,22,22,23,23,25,25,26,26,27,27,28,28,29,29,30,30,31,31,33,33,34,34,36,36,37,37,38,38,39,39,41,41,43,43,44,44,45,45,46,46,47,47,48,48,49,49,50,50,51,51,53,53,54,54,55,55,56,56,57,57,58,58,59,59,60,60,62,62,63,63,64,64,65,65,67,67,68,68,69,69,70,70,71,71,72,72,74,74,75,75,76,76,78,78,79,79,80,80,81,81,82,82,83,83,84,84,85,85,86,86,87,87,88,88,89,89,90,90,91,91,92,92,94,94,95,95,96,96,97,97,98,98,99,99,100,100,102,102,103,103,104,104,105,105,106,106,107,107,109,109,110,110,111,111,112,112,113,113,114,114,115,115,117,117,118,118,119,119,120,120,133,133,134,134,135,135,136,136,137,137,138,138,139,139,140,140,141,141,142,142,143,143,144,144,145,145,146,146,147,147,149,149,151,151,152,152,153,153,154,154,157,157,158,158,159,159,160,160,161,161,162,162,163,163,164,164,165,165,166,166,169,169,170,170,171,171,173,173,174,174,175,175,177,177,178,178,179,179,180,180,181,181,183,183,184,184,185,185,186,186,187,187,188,188,189,189,190,190,191,191,192,192,193,193,194,194,195,195],"right_children":[2,4,6,8,10,12,14,16,18,20,22,24,26,28,30,32,34,36,38,40,42,44,46,48,-1,50,52,54,56,58,60,62,-1,64,66,-1,68,70,72,74,-1,76,-1,78,80,82,84,86,88,90,92,94,-1,96,98,100,102,104,106,108,110,-1,112,114,116,118,-1,120,122,124,126,128,130,-1,132,134,136,-1,138,140,142,144,146,148,150,152,154,156,158,160,162,164,166,-1,168,170,172,174,176,178,180,-1,182,184,186,188,190,192,-1,194,196,198,200,202,204,206,-1,208,210,212,214,-1,-1,-1,-1,-1,-1,-1,-1,-1,-1,-1,-1,216,218,220,222,224,226,228,230,232,234,236,238,240,242,244,-1,246,-1,248,250,252,254,-1,-1,256,258,260,262,264,266,268,270,272,274,-1,-1,276,278,280,-1,282,284,286,-1,288,290,292,294,296,-1,298,300,302,304,306,308,310,312,314,316,318,320,322,-1,-1,-1,-1,-1,-1,-1,-1,-1,-1,-1,-1,-1,-1,-1,-1,-1,-1,-1,-1,-1,-1,-1,-1,-1,-1,-1,-1,-1,-1,-1,-1,-1,-1,-1,-1,-1,-1,-1,-1,-1,-1,-1,-1,-1,-1,-1,-1,-1,-1,-1,-1,-1,-1,-1,-1,-1,-1,-1,-1,-1,-1,-1,-1,-1,-1,-1,-1,-1,-1,-1,-1,-1,-1,-1,-1,-1,-1,-1,-1,-1,-1,-1,-1,-1,-1,-1,-1,-1,-1,-1,-1,-1,-1,-1,-1,-1,-1,-1,-1,-1,-1,-1,-1,-1,-1,-1,-1,-1,-1,-1,-1,-1,-1,-1,-1,-1,-1,-1,-1,-1,-1,-1,-1,-1,-1,-1],"split_conditions":[1.9122143E0,8.12E2,1.0906666E3,2.5E3,7.70633E-1,-1.25E0,2.112E1,7.62E2,2.19024E1,6.1176E-1,7.253333E2,1.2166333E1,2.96165E0,6.19008E2,3.253835E1,3.3333334E-1,1.3025E3,1.12E2,1.67235E0,1.391E1,2.75621E3,1.5377E0,1.872E3,1.1553333E1,3.1808466E-1,2.14765E0,1.376E1,2.88555E2,4.8057144E3,7.7206E2,2.56E2,2.4111111E-1,2.4045889E-1,1.9044E0,9.48105E2,2.2470896E-1,1.21E2,2.1313051E2,6.4E0,2.13449E1,-0E0,9.3E2,1.786844E-1,8.1925E2,3.49692E1,1.3903E2,1.362E3,-1.162E1,4.5555553E0,2.4716666E0,1.55416E0,-1.927E1,-6.0360286E-2,2.0725E3,1.2502E3,9.7E2,6.79744E1,5.6E2,-1.328E1,5.11E3,3.77712E1,-1.5462549E-1,8.8752E0,-4.315E0,1.77384E1,6.87519E2,-1.1071659E-1,5.27432E2,1.82725E0,1.25751E0,-8.888889E-1,1.86798E0,1.71164E0,-1.8592378E-2,4.132E3,-6.2575E0,1.32585E3,4.8559913E-1,1.9420982E1,1.07733E3,1.6545455E-1,1.098E3,2.00733E2,-2.2383332E0,1.94035E0,1.73156E0,1.8755E3,8.2666664E1,1.29E0,7.90642E2,2.8214163E1,3.4651428E3,9.52E0,-0E0,1.72558E3,1.444E3,4.79308E2,8.8752E0,1.23045E0,1.9322E0,7.52E2,3.7292483E-1,1.04973E3,4.08067E2,2.2E0,3.96E2,1.006E3,-2.046E1,-1.13229565E-1,2.0522734E1,1.0987767E3,9.137E-1,-9.394286E0,9.74059E-1,4.3333335E0,-2.6E0,1.4920299E-1,1.125E1,5.175E2,2.27751E2,8.49248E-1,1.7034492E-1,-6.1743908E-2,6.26041E-1,3.9778963E-1,-2.1801602E-2,1.5514411E-1,6.92618E-2,-0E0,2.8230828E-1,1.521745E-1,-1.3650432E-1,-0E0,2.22187E3,7E0,1.30521E3,2.53748E3,2.00733E2,2.8E2,9.8E-2,-1.6666667E-1,1.43976E0,7.54375E0,9.90442E-1,1.936E3,4.6E1,1.6384E0,-1.108E1,-0E0,5.76E2,-0E0,2.5921333E0,-1.75E0,2.2704E1,1.9705715E1,-9.838567E-3,-1.1762035E-1,1.13589E0,1.00188E0,-7.18E0,2.889E3,1.4285715E-1,5.2E0,-1.743E1,1.28925E0,-2.2222222E-1,1.872E3,1.2701331E-1,-0E0,1.18041E0,6.04021E2,5.18715E1,3.0532658E-2,3.17045E2,-5.56E0,1.02105E0,6.7530625E-2,2.98857E-1,6.58E2,1.43517E3,3.8416E0,1.28231E0,-1.17631525E-1,1.43976E0,1.98236E0,4.53797E2,7.6E0,1.2286667E1,9.3E0,-1.054E1,3.36E3,4E-1,2.20673E0,6E0,1.99721E3,5.457143E0,-1.0560463E-1,-1.1916614E-1,1.4185043E-1,-0E0,-1.0762994E-1,2.0073615E-2,1.3322042E-1,2.5018153E-1,4.7279692E-1,-5.808423E-2,3.690872E-2,-6.1095905E-2,-0E0,1.3031593E-1,-0E0,-0E0,1.1117391E-2,-0E0,-5.4430384E-2,-2.5961805E-2,2.4719674E-2,-7.990256E-2,-0E0,-4.0138192E-2,-0E0,-1.1107459E-1,-0E0,3.3688772E-2,-1.15347944E-1,1.2744108E-1,-0E0,-0E0,-8.144388E-2,-0E0,-1.2207615E-1,4.676173E-2,-0E0,-0E0,-1.5005478E-1,-2.3251815E-2,4.2222872E-2,-5.491549E-2,1.1306215E-2,-7.903398E-2,6.0719438E-2,-0E0,-4.0476296E-2,-0E0,-1.2004694E-1,-0E0,-3.5166234E-2,-0E0,2.6468834E-1,9.662916E-3,1.1585222E-1,-2.54395E-3,1.00587755E-1,-1.3590935E-1,-4.847225E-2,-0E0,1.9021735E-2,-0E0,-3.3731673E-2,-4.5443498E-2,2.2032844E-1,-1.9833568E-2,5.8054596E-2,-1.1043643E-1,-1.1543282E-2,1.095643E-1,-1.5247302E-2,-0E0,-1.3300754E-1,2.150392E-2,-0E0,9.06726E-2,-4.0885944E-2,2.8076333E-3,-1.1656136E-1,2.5666377E-1,3.5204492E-3,1.860926E-1,-0E0,-0E0,-1.13661535E-1,-2.311911E-2,-0E0,-1.0541827E-1,-0E0,-1.4222557E-4,-0E0,-0E0,4.5399934E-1,-1.4294486E-2,2.637303E-1,7.4598625E-2,-5.4397922E-2,2.1556707E-1,-0E0,4.4661004E-2,-6.298112E-2,-6.2255424E-2,2.5366284E-2,9.6933186E-2,-9.247782E-2,-2.8779134E-2,9.85946E-3,-0E0,-8.084133E-2,2.3757173E-1,3.478355E-2,1.7458783E-1,7.455543E-2,2.4105454E-2,1.970639E-1,3.5159495E-2,-1.1695348E-1,-0E0,-9.303949E-2,6.813222E-2,-1.369487E-2,-1.1332647E-2,1.5102342E-1,-4.5652766E-2,-1.1897443E-1,-4.2041526E-3,-7.968539E-2],"split_indices":[17,12,50,61,4,44,9,50,9,4,50,35,17,5,9,47,11,66,4,28,5,17,12,28,0,17,28,61,11,5,66,41,0,17,5,0,11,59,28,9,0,12,0,12,9,61,51,20,39,28,4,20,0,12,12,51,59,66,20,11,9,0,35,20,35,5,0,5,17,4,47,4,4,0,51,20,5,0,36,5,41,12,5,20,4,4,12,51,41,5,36,11,28,0,5,11,5,35,4,17,12,0,5,5,47,66,12,20,0,36,5,4,20,4,47,20,0,39,12,5,4,0,0,0,0,0,0,0,0,0,0,0,0,5,47,5,5,5,66,41,44,4,35,4,50,46,17,20,0,66,0,17,44,9,9,0,0,4,4,20,11,44,28,20,4,44,12,0,0,4,5,5,0,5,20,4,0,4,12,5,17,4,0,4,4,5,28,28,28,20,12,46,4,39,5,39,0,0,0,0,0,0,0,0,0,0,0,0,0,0,0,0,0,0,0,0,0,0,0,0,0,0,0,0,0,0,0,0,0,0,0,0,0,0,0,0,0,0,0,0,0,0,0,0,0,0,0,0,0,0,0,0,0,0,0,0,0,0,0,0,0,0,0,0,0,0,0,0,0,0,0,0,0,0,0,0,0,0,0,0,0,0,0,0,0,0,0,0,0,0,0,0,0,0,0,0,0,0,0,0,0,0,0,0,0,0,0,0,0,0,0,0,0,0,0,0,0,0,0,0,0,0,0],"split_type":[0,0,0,0,0,0,0,0,0,0,0,0,0,0,0,0,0,0,0,0,0,0,0,0,0,0,0,0,0,0,0,0,0,0,0,0,0,0,0,0,0,0,0,0,0,0,0,0,0,0,0,0,0,0,0,0,0,0,0,0,0,0,0,0,0,0,0,0,0,0,0,0,0,0,0,0,0,0,0,0,0,0,0,0,0,0,0,0,0,0,0,0,0,0,0,0,0,0,0,0,0,0,0,0,0,0,0,0,0,0,0,0,0,0,0,0,0,0,0,0,0,0,0,0,0,0,0,0,0,0,0,0,0,0,0,0,0,0,0,0,0,0,0,0,0,0,0,0,0,0,0,0,0,0,0,0,0,0,0,0,0,0,0,0,0,0,0,0,0,0,0,0,0,0,0,0,0,0,0,0,0,0,0,0,0,0,0,0,0,0,0,0,0,0,0,0,0,0,0,0,0,0,0,0,0,0,0,0,0,0,0,0,0,0,0,0,0,0,0,0,0,0,0,0,0,0,0,0,0,0,0,0,0,0,0,0,0,0,0,0,0,0,0,0,0,0,0,0,0,0,0,0,0,0,0,0,0,0,0,0,0,0,0,0,0,0,0,0,0,0,0,0,0,0,0,0,0,0,0,0,0,0,0,0,0,0,0,0,0,0,0,0,0,0,0,0,0,0,0,0,0,0,0,0,0,0,0,0,0,0,0,0,0,0,0,0,0,0,0,0,0,0,0],"sum_hessian":[5E3,2.915E3,2.085E3,4.43E2,2.472E3,4.32E2,1.653E3,3.63E2,8E1,3.93E2,2.079E3,7.9E1,3.53E2,2.65E2,1.388E3,7.1E1,2.92E2,2.4E1,5.6E1,1.91E2,2.02E2,2.45E2,1.834E3,7.6E1,3E0,3.35E2,1.8E1,8.5E1,1.8E2,1.126E3,2.62E2,6.9E1,2E0,2.46E2,4.6E1,3E0,2.1E1,3.8E1,1.8E1,1.9E2,1E0,2.01E2,1E0,1.3E1,2.32E2,1.735E3,9.9E1,5.1E1,2.5E1,1.28E2,2.07E2,1.6E1,2E0,5.7E1,2.8E1,1.66E2,1.4E1,5.13E2,6.13E2,4.5E1,2.17E2,2.9E1,4E1,1.83E2,6.3E1,2.7E1,1.9E1,1.3E1,8E0,3.3E1,5E0,6E0,1.2E1,2E0,1.88E2,8.6E1,1.15E2,1E0,1.2E1,1.73E2,5.9E1,7.64E2,9.71E2,9.1E1,8E0,2.2E1,2.9E1,1.6E1,9E0,2.3E1,1.05E2,8.3E1,1.24E2,2E0,1.4E1,4.9E1,8E0,2.1E1,7E0,1.39E2,2.7E1,2E0,1.2E1,3.18E2,1.95E2,2.74E2,3.39E2,4E1,5E0,1.52E2,6.5E1,1.2E1,2.8E1,1.63E2,2E1,6.1E1,2E0,2.1E1,6E0,5E0,8E0,6E0,2E0,5E0,2.8E1,2E0,3E0,5E0,1E0,4E0,8E0,1.87E2,1E0,6E0,8E1,3E0,1.12E2,5E0,7E0,1.01E2,7.2E1,2E0,5.7E1,4.38E2,3.26E2,1.56E2,8.15E2,9E1,1E0,5E0,3E0,1E1,1.2E1,1.4E1,1.5E1,4E0,1.2E1,3E0,6E0,1.5E1,8E0,7.4E1,3.1E1,8.1E1,2E0,5.1E1,7.3E1,1.2E1,2E0,2E1,2.9E1,7E0,1E0,1.1E1,1E1,3E0,4E0,2E1,1.19E2,1.6E1,1.1E1,2E0,1E1,2.03E2,1.15E2,1.66E2,2.9E1,1.3E2,1.44E2,8.9E1,2.5E2,8E0,3.2E1,4.7E1,1.05E2,3.5E1,3E1,5E0,7E0,1E0,2.7E1,6.1E1,1.02E2,1.5E1,5E0,5.1E1,1E1,1.2E1,9E0,2E0,4E0,1E0,4E0,1E0,7E0,4E0,2E0,7.8E1,2E0,1E0,2E0,1.11E2,1E0,1E0,4E0,5E0,2E0,1.6E1,8.5E1,2E0,7E1,1E0,1E0,1E0,5.6E1,1.51E2,2.87E2,2.13E2,1.13E2,1.52E2,4E0,2.54E2,5.61E2,1E0,8.9E1,1E0,4E0,2E0,8E0,5E0,7E0,4E0,1E1,4E0,1.1E1,1E0,2E0,1E0,5E0,2E0,1.3E1,6E0,2E0,6E1,1.4E1,4E0,2.7E1,2E0,7.9E1,1E0,1E0,7E0,4.4E1,8E0,6.5E1,4E0,1.6E1,2.8E1,1E0,1E0,6E0,9E0,2E0,9E0,1E0,1E0,2E0,1E0,1.9E1,1E1,1.09E2,7E0,9E0,1E1,1E0,1E0,1E0,3.9E1,1.64E2,1.1E2,5E0,8.5E1,8.1E1,4E0,2.5E1,1.17E2,1.3E1,4E1,1.04E2,2.3E1,6.6E1,2.3E2,2E1,2E0,6E0,3E1,2E0,4.1E1,6E0,9.7E1,8E0,1.4E1,2.1E1],"tree_param":{"num_deleted":"0","num_feature":"68","num_nodes":"323","size_leaf_vector":"1"}},{"base_weights":[-0E0,6.486497E-1,-2.84034E-1,8.57521E-1,-1.5886039E-1,-8.239142E-2,-8.0267054E-1,-7.8766656E-1,9.593291E-1,3.9522845E-2,-6.5163726E-1,2.7066326E-1,-2.5951755E-1,-6.03708E-1,-1.0775789E0,-1.0382904E0,3.403489E-1,1.0563402E0,-7.4185055E-1,2.1568407E-1,-6.6644686E-1,-4.105408E-1,-1.3623488E0,1.1870376E0,1.1994488E-1,2.8824477E0,-2.885988E-1,-1.1000463E-1,-8.078396E-1,-0E0,-1.0928757E0,-1.2134985E0,1.0128189E-1,-1.1682982E0,2.0156627E0,2.8076938E-1,1.2479562E0,-6.408862E-2,-1.2167594E0,4.7878736E-1,-4.8021704E-2,7.4355793E-1,-8.367038E-1,1.5966877E-1,-4.884046E-1,-0E0,-1.3152903E-1,1.988904E0,9.253676E-2,4.8495403E-1,-6.1231267E-2,4.0679485E-1,1.8091018E0,-1.3832307E-1,-5.9450424E-1,1.3322904E0,-2.3825033E-1,-9.503893E-1,-2.4456787E-1,3.2260412E-1,-7.69787E-2,-6.1108035E-1,-1.1306417E0,-1.4271991E0,3.294404E-1,-1.2520708E-1,-0E0,5.7297695E-2,2.904586E-1,4.847368E-1,-1.1024112E0,1.1461339E0,2.9988194E0,7.821156E-1,-4.9573493E-1,2.7661398E-2,-1.2136793E-1,1.6706116E-1,1.1806569E0,-2.89559E-1,5.44347E-1,1.1138115E-1,-0E0,-9.5697415E-1,-0E0,-1.03431374E-1,-2.9278818E-1,2.711756E0,1.0640529E0,2.5253866E0,-1.5555772E-1,2.2568667E0,2.3668167E-1,-2.3387635E-1,5.8136714E-1,2.132669E0,1.6608877E-2,-7.295283E-1,-4.4387594E-2,-7.03895E-1,-2.3202625E-1,-4.2371158E-2,1.5641954E0,-4.6380183E-1,6.244217E-1,-9.980902E-1,2.856539E-1,-3.5327527E-1,3.3889163E-1,-0E0,5.276446E-2,-8.1305146E-1,5.022243E-1,-1.0712444E0,-1.20215006E-1,-1.4831303E0,-5.61955E-1,1.7056017E-1,-1.6269626E-1,1.0094334E0,2.7676454E-1,-1.14371955E-1,-0E0,-3.4176463E-1,1.2340451E0,3.8421614E0,9.3951285E-1,5.249597E-2,1.5655789E-1,-1.1605755E-2,-7.12908E-1,3.553572E-1,-1.0260109E0,1.7887508E0,2.0524757E-1,-6.0214365E-1,-0E0,-1.726473E-2,6.559777E-1,-3.4971908E-1,-1.0343042E-1,-0E0,4.083016E-2,-8.124774E-2,-7.955408E-1,2.2893562E0,4.1179547E0,2.5998533E0,-0E0,1.0055529E-1,2.9742572E-1,-9.73617E-1,7.9696774E-2,2.7496095E0,-5.38634E-2,6.8600655E-1,5.151946E-2,1.3749272E-1,-4.6411368E-1,4.724999E-1,1.8848885E0,2.1885552E-1,-0E0,8.937342E-2,-8.6950475E-1,-4.1383624E-1,7.248265E-2,-1.966966E-1,-7.8514415E-1,6.1548326E-2,-7.100026E-1,1.7096294E0,-0E0,-5.9129363E-1,6.32164E-1,1.3690883E0,3.105139E-2,2.958204E-1,-1.0149552E0,-6.9393253E-1,9.882747E-1,3.6396194E-1,-8.522667E-1,-3.4708387E-1,-1.0524483E-1,1.3626558E-1,-0E0,-1.0748113E0,-0E0,-1.4322598E-1,-1.3628427E-2,-7.5225435E-2,-0E0,-6.580028E-2,-0E0,1.4036182E-1,3.8000003E-2,-8.4869325E-2,3.369241E-2,3.9761162E-1,-4.404361E-2,8.481905E-2,1.6263928E-1,2.277582E-1,4.331534E-1,2.674459E-1,-6.9726503E-4,7.5669815E-3,-0E0,1.1062803E-2,-3.371685E-2,-8.244479E-2,-0E0,4.6321783E-2,-7.939815E-2,-0E0,-1.0906543E-1,4.45335E-1,1.4346862E-1,7.0210256E-2,-4.62795E-2,1.5536582E-4,-7.8966156E-2,9.652998E-2,-1.5315849E-2,7.195289E-2,-0E0,-0E0,-4.2785008E-2,-2.0391863E-2,5.771082E-2,5.613126E-3,-9.605285E-2,3.3083844E-1,1.4952454E-1,4.3315586E-1,2.0250984E-1,3.5856357E-1,1.1473961E-1,-9.29468E-2,1.2468637E-1,-0E0,-1.0469327E-1,4.7927316E-2,-4.3549277E-2,1.8169573E-1,3.6448035E-1,3.893719E-2,1.289635E-1,-1.3824448E-4,1.20788395E-1,3.0549043E-1,8.112964E-3,-2.5570408E-2,-8.5765556E-2,5.2564014E-2,-5.778535E-2,2.0304005E-1,-0E0,-9.397586E-2,3.8025852E-2,-1.1749192E-1,-5.431584E-2,-6.8798706E-2,5.0554303E-3,-2.196326E-3,9.023655E-2,1.6080119E-1,-3.6840368E-2,-9.825112E-2,-6.3929215E-2,-4.1687552E-2,3.276596E-2,3.400962E-3,-8.44647E-2,1.7656942E-1,-0E0,-3.3629704E-2,-9.3762934E-2,9.1982566E-2,-6.8084225E-3,2.2755401E-1,7.438541E-2,2.1429358E-2,-9.813478E-2,-6.7670524E-2,-1.0301804E-1,-0E0,-7.809843E-2,1.18239395E-1,-0E0,-4.555987E-2,9.376694E-2,9.2614286E-2,-8.9702174E-2,-8.718344E-2,-0E0,-1.01516716E-1,-0E0],"categories":[],"categories_nodes":[],"categories_segments":[],"categories_sizes":[],"default_left":[0,0,0,0,0,0,0,0,0,0,0,0,0,0,0,0,0,0,0,0,0,0,0,0,0,0,0,0,0,0,0,0,0,0,0,0,0,0,0,0,0,0,0,0,0,0,0,0,0,0,0,0,0,0,0,0,0,0,0,0,0,0,0,0,0,0,0,0,0,0,0,0,0,0,0,0,0,0,0,0,0,0,0,0,0,0,0,0,0,0,0,0,0,0,0,0,0,0,0,0,0,0,0,0,0,0,0,0,0,0,0,0,0,0,0,0,0,0,0,0,0,0,0,0,0,0,0,0,0,0,0,0,0,0,0,0,0,0,0,0,0,0,0,0,0,0,0,0,0,0,0,0,0,0,0,0,0,0,0,0,0,0,0,0,0,0,0,0,0,0,0,0,0,0,0,0,0,0,0,0,0,0,0,0,0,0,0,0,0,0,0,0,0,0,0,0,0,0,0,0,0,0,0,0,0,0,0,0,0,0,0,0,0,0,0,0,0,0,0,0,0,0,0,0,0,0,0,0,0,0,0,0,0,0,0,0,0,0,0,0,0,0,0,0,0,0,0,0,0,0,0,0,0,0,0,0,0,0,0,0,0,0,0,0,0,0,0,0,0,0,0,0,0,0,0,0,0,0,0,0,0,0,0,0,0,0,0,0,0,0,0,0,0,0,0,0,0,0,0],"id":1,"left_children":[1,3,5,7,9,11,13,15,17,19,21,23,25,27,29,31,33,35,37,39,41,43,45,47,49,51,53,55,57,59,61,63,-1,65,67,69,71,73,75,77,79,81,83,-1,85,-1,-1,87,89,91,93,-1,95,97,99,101,103,105,107,109,-1,111,113,115,117,-1,-1,-1,-1,119,121,123,125,127,129,-1,-1,131,133,135,137,-1,-1,139,141,-1,143,145,147,149,151,153,155,157,159,161,-1,163,165,167,169,-1,171,173,175,177,179,181,-1,-1,-1,183,185,187,-1,189,191,-1,193,195,197,-1,-1,199,201,203,205,207,-1,209,211,213,215,217,219,221,223,-1,225,227,-1,-1,-1,229,231,233,235,237,239,-1,-1,241,243,245,-1,247,249,251,253,255,257,-1,-1,259,261,263,265,267,269,271,273,275,-1,277,279,281,283,-1,285,287,289,291,293,295,-1,-1,-1,297,-1,-1,-1,-1,-1,-1,-1,-1,-1,-1,-1,-1,-1,-1,-1,-1,-1,-1,-1,-1,-1,-1,-1,-1,-1,-1,-1,-1,-1,-1,-1,-1,-1,-1,-1,-1,-1,-1,-1,-1,-1,-1,-1,-1,-1,-1,-1,-1,-1,-1,-1,-1,-1,-1,-1,-1,-1,-1,-1,-1,-1,-1,-1,-1,-1,-1,-1,-1,-1,-1,-1,-1,-1,-1,-1,-1,-1,-1,-1,-1,-1,-1,-1,-1,-1,-1,-1,-1,-1,-1,-1,-1,-1,-1,-1,-1,-1,-1,-1,-1,-1,-1,-1,-1,-1,-1,-1,-1,-1,-1,-1],"loss_changes":[9.213048E2,2.575766E2,3.627369E2,2.0300623E2,3.111282E1,1.5663957E2,5.1483643E1,2.0487476E1,1.8861755E2,2.7033787E1,1.3819962E1,1.1401859E2,1.4999788E2,5.612387E1,6.3133545E0,2.1632381E1,3.1176853E1,1.5897192E2,1.8353539E1,1.2780738E1,1.0415855E1,1.0118297E1,2.4944687E-1,1.00602844E2,4.7905743E1,1.7103333E1,7.534779E1,2.9795639E1,3.0842438E1,1.7564433E0,5.536499E0,1.8903023E1,0E0,6.740656E-1,5.3564796E0,6.003894E1,1.5006445E2,9.210403E0,4.9017906E0,1.8562275E1,1.2193097E1,5.941484E-1,4.7501335E0,0E0,6.6214457E0,0E0,0E0,4.1015717E1,3.2548664E1,1.030865E2,5.268252E1,0E0,2.444685E0,6.098117E1,2.0594986E1,6.488529E0,2.9804237E1,1.9402893E1,3.105327E1,5.2817196E-1,0E0,7.2813435E0,8.8778687E-1,2.7783203E-1,6.0338073E0,0E0,0E0,0E0,0E0,1.9228806E1,4.1661186E0,1.0788916E2,7.684323E1,3.434966E0,1.1680036E0,0E0,0E0,1.3706993E1,1.4020786E1,5.2325325E0,2.4226322E0,0E0,0E0,1.5873985E0,1.885144E-1,0E0,4.6535425E0,1.5569885E1,4.7144596E1,4.0847397E-1,9.554266E0,4.2611145E1,1.681725E1,3.2646767E1,1.1833691E1,6.594181E-1,0E0,1.8088799E1,4.183498E1,1.6120071E1,1.8609632E1,0E0,2.7906723E0,1.7145512E1,1.2297616E1,1.9254028E1,7.865399E0,2.9119928E1,0E0,0E0,0E0,2.3849316E0,3.190455E0,8.963318E-1,0E0,6.822586E-1,6.565231E-1,0E0,3.8371563E-1,1.3312065E1,1.2529169E1,0E0,0E0,2.2272726E1,1.2455078E2,2.8775116E1,2.8084087E1,1.212012E-2,0E0,5.5477947E-1,1.3269091E0,8.867035E0,9.941473E-1,6.145134E0,4.407319E0,4.9979563E0,5.0104637E0,0E0,1.6565065E0,4.705552E-1,0E0,0E0,0E0,3.1839309E0,3.6661348E0,1.9811417E1,9.123688E-1,1.5051292E1,2.3833046E1,0E0,0E0,7.275715E-1,7.9813795E0,1.7208725E1,0E0,9.397963E0,1.1148147E1,1.9452206E1,1.9046764E1,8.684498E0,3.100628E0,0E0,0E0,6.606513E0,1.25895E1,3.5297623E1,6.2827892E1,2.0624249E1,8.011398E0,1.120194E1,7.8828354E0,3.1032028E0,0E0,9.170338E0,3.830789E0,4.6852455E0,2.9914901E0,0E0,5.438843E0,1.429609E-1,2.648632E0,1.7702482E1,8.929478E0,1.9924253E0,0E0,0E0,0E0,3.7454224E-1,0E0,0E0,0E0,0E0,0E0,0E0,0E0,0E0,0E0,0E0,0E0,0E0,0E0,0E0,0E0,0E0,0E0,0E0,0E0,0E0,0E0,0E0,0E0,0E0,0E0,0E0,0E0,0E0,0E0,0E0,0E0,0E0,0E0,0E0,0E0,0E0,0E0,0E0,0E0,0E0,0E0,0E0,0E0,0E0,0E0,0E0,0E0,0E0,0E0,0E0,0E0,0E0,0E0,0E0,0E0,0E0,0E0,0E0,0E0,0E0,0E0,0E0,0E0,0E0,0E0,0E0,0E0,0E0,0E0,0E0,0E0,0E0,0E0,0E0,0E0,0E0,0E0,0E0,0E0,0E0,0E0,0E0,0E0,0E0,0E0,0E0,0E0,0E0,0E0,0E0,0E0,0E0,0E0,0E0,0E0,0E0,0E0,0E0,0E0,0E0,0E0,0E0,0E0,0E0,0E0,0E0,0E0,0E0,0E0,0E0,0E0],"parents":[2147483647,0,0,1,1,2,2,3,3,4,4,5,5,6,6,7,7,8,8,9,9,10,10,11,11,12,12,13,13,14,14,15,15,16,16,17,17,18,18,19,19,20,20,21,21,22,22,23,23,24,24,25,25,26,26,27,27,28,28,29,29,30,30,31,31,33,33,34,34,35,35,36,36,37,37,38,38,39,39,40,40,41,41,42,42,44,44,47,47,48,48,49,49,50,50,52,52,53,53,54,54,55,55,56,56,57,57,58,58,59,59,61,61,62,62,63,63,64,64,69,69,70,70,71,71,72,72,73,73,74,74,77,77,78,78,79,79,80,80,83,83,84,84,86,86,87,87,88,88,89,89,90,90,91,91,92,92,93,93,94,94,95,95,97,97,98,98,99,99,100,100,102,102,103,103,104,104,105,105,106,106,107,107,111,111,112,112,113,113,115,115,116,116,118,118,119,119,120,120,123,123,124,124,125,125,126,126,127,127,129,129,130,130,131,131,132,132,133,133,134,134,135,135,136,136,138,138,139,139,143,143,144,144,145,145,146,146,147,147,148,148,151,151,152,152,153,153,155,155,156,156,157,157,158,158,159,159,160,160,163,163,164,164,165,165,166,166,167,167,168,168,169,169,170,170,171,171,173,173,174,174,175,175,176,176,178,178,179,179,180,180,181,181,182,182,183,183,187,187],"right_children":[2,4,6,8,10,12,14,16,18,20,22,24,26,28,30,32,34,36,38,40,42,44,46,48,50,52,54,56,58,60,62,64,-1,66,68,70,72,74,76,78,80,82,84,-1,86,-1,-1,88,90,92,94,-1,96,98,100,102,104,106,108,110,-1,112,114,116,118,-1,-1,-1,-1,120,122,124,126,128,130,-1,-1,132,134,136,138,-1,-1,140,142,-1,144,146,148,150,152,154,156,158,160,162,-1,164,166,168,170,-1,172,174,176,178,180,182,-1,-1,-1,184,186,188,-1,190,192,-1,194,196,198,-1,-1,200,202,204,206,208,-1,210,212,214,216,218,220,222,224,-1,226,228,-1,-1,-1,230,232,234,236,238,240,-1,-1,242,244,246,-1,248,250,252,254,256,258,-1,-1,260,262,264,266,268,270,272,274,276,-1,278,280,282,284,-1,286,288,290,292,294,296,-1,-1,-1,298,-1,-1,-1,-1,-1,-1,-1,-1,-1,-1,-1,-1,-1,-1,-1,-1,-1,-1,-1,-1,-1,-1,-1,-1,-1,-1,-1,-1,-1,-1,-1,-1,-1,-1,-1,-1,-1,-1,-1,-1,-1,-1,-1,-1,-1,-1,-1,-1,-1,-1,-1,-1,-1,-1,-1,-1,-1,-1,-1,-1,-1,-1,-1,-1,-1,-1,-1,-1,-1,-1,-1,-1,-1,-1,-1,-1,-1,-1,-1,-1,-1,-1,-1,-1,-1,-1,-1,-1,-1,-1,-1,-1,-1,-1,-1,-1,-1,-1,-1,-1,-1,-1,-1,-1,-1,-1,-1,-1,-1,-1,-1],"split_conditions":[2.6145E0,1.5920134E1,8.04054E0,2.6E0,1.6129E0,6E0,3.5848E0,-8.625E0,4.8057144E3,4.4555E3,3.136E3,8.12E2,5.76E2,5.61E0,1.13E2,1.936E2,6.25E2,4.50726E0,1.714E0,1.77338E-2,2.345E2,1.76E2,1.60545E1,3.5848E0,-1.68E1,3.47339E-2,3.5848E0,8.1E2,9.61E2,1.0625E0,8.036667E2,-1.728E1,1.0128189E-1,2.295E0,3.4E0,1.52776E1,-7.38E0,2.345E2,2.112E3,1.5552E2,-3.21E1,6.75958E0,1.28112E1,1.5966877E-1,3.75E0,-0E0,-1.3152903E-1,-1.08E1,8.258095E2,7.45E1,1.10966E-1,4.0679485E-1,2.7565E0,-9.333333E0,1.06638E-1,5.76E2,1.2225E2,1.7073668E1,2.37215E-1,9.7333336E1,-7.69787E-2,-5.25E0,9.595833E2,1.54E2,4.14541E0,-1.2520708E-1,-0E0,5.7297695E-2,2.904586E-1,6.59E0,4.24125E0,4.12E0,4.095238E0,1.77E2,3.6E2,2.7661398E-2,-1.2136793E-1,7.76E2,2.831672E2,1.7206349E0,-1.3333334E0,1.1138115E-1,-0E0,4.3980133E1,1.45521E-1,-1.03431374E-1,1.90472E1,1.37088E1,1.47E2,3.6E1,4.27929E0,3.5848E0,1.15E2,4E0,-9.9E0,1.18948E1,1.6608877E-2,-3.142857E0,1E0,8.036667E2,-4.315E0,-4.2371158E-2,1.34278E2,1.154508E2,7.29E2,3.485E2,1.39384E1,1.2225E2,3.3889163E-1,-0E0,5.276446E-2,1.305E2,5.2E0,9.45E2,-1.20215006E-1,8.11872E0,9.8938E-2,1.7056017E-1,4.35584E0,2.968E1,1.5233333E2,-1.14371955E-1,-0E0,4.3736E0,-2.9E1,6.4105E0,2.5872E1,5.47087E0,1.5655789E-1,5.13882E0,1.599522E2,1.832E1,3.78574E0,4.41E2,5.2444444E0,6.1666668E1,2.312E2,-1.726473E-2,1.4841E0,4.33955E0,-1.0343042E-1,-0E0,4.083016E-2,1.26125E1,2.58E2,8.79264E0,1.27545E-1,1.88842E-3,1.2513275E1,1.0055529E-1,2.9742572E-1,3.7456E0,4.8768E0,-5.6666665E0,-5.38634E-2,6.84E0,3.225E2,2.85E1,6.07728E0,3.94565E-1,5.07066E0,2.1885552E-1,-0E0,1.316E3,1.865E3,1.84832E1,-5.52E0,8.1925E2,3.6E1,-3.6E1,-7.96E1,4.39021E-2,-0E0,1.047E3,8.8E1,1.137943E1,1.25333336E2,2.958204E-1,9.333333E2,9.03641E0,1.526084E1,6.2E0,8.077E0,1.06666664E2,-1.0524483E-1,1.3626558E-1,-0E0,1.29688E1,-0E0,-1.4322598E-1,-1.3628427E-2,-7.5225435E-2,-0E0,-6.580028E-2,-0E0,1.4036182E-1,3.8000003E-2,-8.4869325E-2,3.369241E-2,3.9761162E-1,-4.404361E-2,8.481905E-2,1.6263928E-1,2.277582E-1,4.331534E-1,2.674459E-1,-6.9726503E-4,7.5669815E-3,-0E0,1.1062803E-2,-3.371685E-2,-8.244479E-2,-0E0,4.6321783E-2,-7.939815E-2,-0E0,-1.0906543E-1,4.45335E-1,1.4346862E-1,7.0210256E-2,-4.62795E-2,1.5536582E-4,-7.8966156E-2,9.652998E-2,-1.5315849E-2,7.195289E-2,-0E0,-0E0,-4.2785008E-2,-2.0391863E-2,5.771082E-2,5.613126E-3,-9.605285E-2,3.3083844E-1,1.4952454E-1,4.3315586E-1,2.0250984E-1,3.5856357E-1,1.1473961E-1,-9.29468E-2,1.2468637E-1,-0E0,-1.0469327E-1,4.7927316E-2,-4.3549277E-2,1.8169573E-1,3.6448035E-1,3.893719E-2,1.289635E-1,-1.3824448E-4,1.20788395E-1,3.0549043E-1,8.112964E-3,-2.5570408E-2,-8.5765556E-2,5.2564014E-2,-5.778535E-2,2.0304005E-1,-0E0,-9.397586E-2,3.8025852E-2,-1.1749192E-1,-5.431584E-2,-6.8798706E-2,5.0554303E-3,-2.196326E-3,9.023655E-2,1.6080119E-1,-3.6840368E-2,-9.825112E-2,-6.3929215E-2,-4.1687552E-2,3.276596E-2,3.400962E-3,-8.44647E-2,1.7656942E-1,-0E0,-3.3629704E-2,-9.3762934E-2,9.1982566E-2,-6.8084225E-3,2.2755401E-1,7.438541E-2,2.1429358E-2,-9.813478E-2,-6.7670524E-2,-1.0301804E-1,-0E0,-7.809843E-2,1.18239395E-1,-0E0,-4.555987E-2,9.376694E-2,9.2614286E-2,-8.9702174E-2,-8.718344E-2,-0E0,-1.01516716E-1,-0E0],"split_indices":[8,19,1,40,8,54,8,20,11,12,12,12,11,28,53,16,11,1,8,2,53,16,19,8,32,2,8,12,11,42,11,32,0,8,58,19,20,53,12,34,58,1,35,0,40,0,0,32,11,16,2,0,8,20,2,11,16,35,2,16,0,20,12,16,1,0,0,0,0,28,1,28,40,53,53,0,0,53,31,42,42,0,0,59,2,0,19,35,53,16,1,8,16,54,58,19,0,42,42,11,20,0,31,31,11,11,19,16,0,0,0,16,28,12,0,1,2,0,1,34,11,0,0,19,32,1,31,1,0,1,59,28,1,11,40,37,16,0,8,1,0,0,0,28,16,35,2,2,35,0,0,1,1,20,0,28,16,16,1,2,1,0,0,12,11,59,20,12,34,32,58,2,0,12,16,1,16,0,12,1,1,28,1,16,0,0,0,19,0,0,0,0,0,0,0,0,0,0,0,0,0,0,0,0,0,0,0,0,0,0,0,0,0,0,0,0,0,0,0,0,0,0,0,0,0,0,0,0,0,0,0,0,0,0,0,0,0,0,0,0,0,0,0,0,0,0,0,0,0,0,0,0,0,0,0,0,0,0,0,0,0,0,0,0,0,0,0,0,0,0,0,0,0,0,0,0,0,0,0,0,0,0,0,0,0,0,0,0,0,0,0,0,0,0,0,0,0,0,0],"split_type":[0,0,0,0,0,0,0,0,0,0,0,0,0,0,0,0,0,0,0,0,0,0,0,0,0,0,0,0,0,0,0,0,0,0,0,0,0,0,0,0,0,0,0,0,0,0,0,0,0,0,0,0,0,0,0,0,0,0,0,0,0,0,0,0,0,0,0,0,0,0,0,0,0,0,0,0,0,0,0,0,0,0,0,0,0,0,0,0,0,0,0,0,0,0,0,0,0,0,0,0,0,0,0,0,0,0,0,0,0,0,0,0,0,0,0,0,0,0,0,0,0,0,0,0,0,0,0,0,0,0,0,0,0,0,0,0,0,0,0,0,0,0,0,0,0,0,0,0,0,0,0,0,0,0,0,0,0,0,0,0,0,0,0,0,0,0,0,0,0,0,0,0,0,0,0,0,0,0,0,0,0,0,0,0,0,0,0,0,0,0,0,0,0,0,0,0,0,0,0,0,0,0,0,0,0,0,0,0,0,0,0,0,0,0,0,0,0,0,0,0,0,0,0,0,0,0,0,0,0,0,0,0,0,0,0,0,0,0,0,0,0,0,0,0,0,0,0,0,0,0,0,0,0,0,0,0,0,0,0,0,0,0,0,0,0,0,0,0,0,0,0,0,0,0,0,0,0,0,0,0,0,0,0,0,0,0,0,0,0,0,0,0,0,0,0,0,0,0,0],"sum_hessian":[5E3,1.523E3,3.477E3,1.211E3,3.12E2,2.505E3,9.72E2,7E1,1.141E3,2.21E2,9.1E1,8.35E2,1.67E3,5.66E2,4.06E2,5.8E1,1.2E1,1.08E3,6.1E1,1.78E2,4.3E1,6.9E1,2.2E1,1.17E2,7.18E2,1.5E1,1.655E3,1.67E2,3.99E2,6E0,4E2,5.4E1,4E0,6E0,6E0,2.15E2,8.65E2,2.6E1,3.5E1,9.1E1,8.7E1,4E0,3.9E1,2E0,6.7E1,1E0,2.1E1,6.7E1,5E1,2.4E2,4.78E2,6E0,9E0,1.112E3,5.43E2,1.3E1,1.54E2,3.17E2,8.2E1,4E0,2E0,3.1E1,3.69E2,4.8E1,6E0,5E0,1E0,3E0,3E0,1.88E2,2.7E1,8.18E2,4.7E1,8E0,1.8E1,1E0,3.4E1,6.4E1,2.7E1,6.3E1,2.4E1,2E0,2E0,3.5E1,4E0,1.5E1,5.2E1,3.7E1,3E1,5E0,4.5E1,2.9E1,2.11E2,3.78E2,1E2,7E0,2E0,1.51E2,9.61E2,4.15E2,1.28E2,1E0,1.2E1,1.23E2,3.1E1,3.06E2,1.1E1,8E1,2E0,1E0,3E0,2.7E1,4E0,2.68E2,1.01E2,4.4E1,4E0,2E0,4E0,5.2E1,1.36E2,2.5E1,2E0,4.5E1,7.73E2,3.3E1,1.4E1,5E0,3E0,7E0,1.1E1,5.6E1,8E0,1.6E1,1.1E1,2.9E1,3.4E1,2E0,2.2E1,8E0,2.7E1,3E0,1E0,3.8E1,1.4E1,2.9E1,8E0,1.2E1,1.8E1,2E0,3E0,1.1E1,3.4E1,2.5E1,4E0,6E1,1.51E2,1.43E2,2.35E2,9.3E1,7E0,6E0,1E0,2.1E1,1.3E2,2.33E2,7.28E2,5.9E1,3.56E2,7.8E1,5E1,1.1E1,1E0,1.11E2,1.2E1,1.3E1,1.8E1,1E0,3.05E2,4E0,7E0,3.2E1,4.8E1,1.2E1,1.5E1,2E0,2E0,2.67E2,1E0,4.2E1,2E0,3E0,1E0,1E0,3E0,2.8E1,2.4E1,8E0,1.28E2,1E0,4.4E1,4.64E2,3.09E2,1.2E1,2.1E1,5E0,9E0,4E0,1E0,3E0,4E0,9E0,2E0,5.1E1,5E0,1E0,7E0,1E0,1.5E1,7E0,4E0,7E0,2.2E1,4E0,3E1,1.9E1,3E0,1E0,7E0,3.3E1,5E0,2E0,1.2E1,1E1,1.9E1,6E0,2E0,6E0,6E0,1E1,8E0,2E0,9E0,2E1,1.4E1,1.5E1,1E1,4.4E1,1.6E1,1.44E2,7E0,2E0,1.41E2,1.66E2,6.9E1,8.7E1,6E0,6E0,1E0,4E0,1.7E1,5.5E1,7.5E1,1.4E2,9.3E1,6.56E2,7.2E1,5E0,5.4E1,1E2,2.56E2,2.7E1,5.1E1,9E0,4.1E1,1E1,1E0,7.2E1,3.9E1,9E0,3E0,4E0,9E0,1.6E1,2E0,6.8E1,2.37E2,1E0,3E0,6E0,1E0,1.3E1,1.9E1,2E0,4.6E1,4E0,8E0,2.65E2,2E0],"tree_param":{"num_deleted":"0","num_feature":"68","num_nodes":"299","size_leaf_vector":"1"}},{"base_weights":[2.38114E-5,5.879045E-1,-2.5719285E-1,7.604187E-2,9.7197604E-1,3.103719E-1,-3.695257E-1,1.1319305E0,-4.6789438E-2,1.2068619E0,-6.261194E-2,1.4746938E0,-2.6917124E-1,-2.1124396E-1,-7.12501E-1,1.4285034E0,1.6594258E-1,3.476129E-1,-2.8207558E-1,1.637125E0,7.7255857E-1,1.3511415E-1,-7.469446E-1,2.6260574E0,1.0593166E0,3.3220363E-1,-5.2871126E-1,-3.1571636E-1,1.6408783E-1,-5.408623E-1,-9.389474E-1,4.6841758E-1,1.7907003E0,7.259008E-1,-4.8580155E-2,-4.6768773E-1,5.5484235E-1,-1.0092925E0,-1.5924242E-1,1.5295165E0,3.5962398E0,6.228108E-1,2.0675526E0,-4.3591303E-1,4.2235616E-1,-4.1334182E-1,-1.2235776E0,-0E0,2.8675432E0,2.8971274E0,8.806055E-1,9.5405424E-1,-3.6464328E-1,-5.586367E-1,2.9513757E0,-1.3615201E-1,-5.15419E-1,-3.273476E-1,3.4397313E-1,-1.065987E0,-4.097008E-1,4.1315682E-2,-9.4503E-1,-6.184788E-1,1.1118658E0,1.4016489E0,2.8899715E0,8.467163E-2,-0E0,-4.433096E-1,2.116778E-2,-0E0,-7.45939E-1,3.1648958E-1,1.2363391E0,4.1988185E-1,-1.0864595E0,-3.2853644E-2,-7.5394344E-1,5.6208145E-2,1.7078911E0,2.8865023E0,4.929119E-1,8.153073E-1,-8.340765E-2,3.1447332E0,8.0482095E-1,2.3745662E-1,-5.37477E-1,1.2240893E0,-1.1354028E-1,1.3208239E-1,-8.354002E-1,-1.1957667E-1,-0E0,6.700507E-2,-9.541047E-2,3.3244643E0,2.2235456E0,8.975082E-2,3.2289243E-1,1.5785633E0,5.4405695E-1,2.3658538E0,5.508585E-1,-4.7775945E-1,4.2481223E-1,-1.3456397E-1,-4.7978675E-1,4.181696E-1,4.2881206E-2,3.1323543E-1,-2.7634463E-1,-5.798501E-1,7.30632E-2,5.457081E-1,-5.014622E-1,3.18821E-1,3.116834E-1,1.769033E-1,-1.1644017E0,3.6795355E-2,-5.1933557E-1,-9.507123E-1,2.5493555E-2,-0E0,-8.7060526E-2,3.37451E-1,7.255831E-1,1.4848571E0,-0E0,3.1027765E0,1.7635074E-2,-0E0,-8.338812E-2,5.1050868E-2,-3.7804416E-1,-1.18935995E-1,-5.89676E-1,1.4275703E-1,1.3419366E0,1.7967609E0,4.4631028E-1,8.489924E-2,-0E0,-0E0,-1.2175187E0,-7.130731E-1,8.520391E-2,-0E0,-1.0021461E0,-9.398648E-2,2.9278505E-1,1.4508966E0,2.5078182E0,2.9764995E-2,2.8374782E-1,-5.629619E-1,9.324932E-1,3.107678E-1,-5.198308E-1,1.0394742E-1,3.4646153E0,-0E0,1.2772942E0,-7.984703E-1,1.194034E-1,1.7009152E0,2.6657486E-1,-2.2536129E-1,1.8941878E-1,-1.6235411E-1,7.501279E-1,-0E0,-8.6923584E-2,2.8380592E0,4.4942737E-1,7.9836035E-1,2.5982198E-1,2.0531087E0,7.7458614E-1,4.528871E-1,2.793868E0,7.855227E-1,2.739953E0,3.561676E-1,1.904482E-1,3.2092643E-1,-7.1643126E-1,5.5481976E-1,-5.326956E-1,6.8742335E-1,-4.1399914E-1,-3.771995E-1,7.5803155E-1,-9.334921E-1,-5.0935847E-1,2.0217946E-1,-3.8582173E-3,1.439141E0,-4.460831E-1,1.0355994E0,-6.150441E-1,6.513496E-3,5.5462533E-1,-1.1777239E0,-0E0,2.0437639E0,-1.1042883E-1,-6.5501493E-1,-7.482608E-2,-8.854638E-1,-1.1664631E0,-0E0,8.215031E-2,1.4553675E-1,-0E0,2.6130157E-2,3.1629893E-1,-3.939065E-2,-0E0,-6.8013854E-2,-4.189474E-3,2.5349863E-2,-5.2248392E-2,1.973415E-1,5.9873287E-2,1.3519381E-1,3.8528228E-1,6.9958225E-2,-0E0,2.7996E-2,-9.1357864E-2,1.7244685E-2,-1.1974518E-1,-9.137578E-2,1.8464005E-2,1.9406889E-2,-4.3042157E-2,-3.0002391E-2,9.035129E-2,-1.06457874E-1,-3.3618797E-2,1.4051344E-1,-7.6755094E-3,1.4816323E-1,-1.2998177E-2,5.033753E-1,2.0557432E-1,-7.389484E-2,7.81518E-2,1.1130632E-1,3.169478E-2,1.01705454E-1,1.03341555E-2,-0E0,-7.076264E-2,2.071346E-1,3.5753152E-1,9.295846E-2,-5.513743E-2,2.0416318E-1,5.865447E-2,-5.2797206E-2,-1.1417277E-1,2.7485637E-2,-0E0,-0E0,1.8334019E-1,-0E0,9.80274E-2,-4.6513677E-2,1.1403167E-3,-0E0,-3.9232258E-2,-0E0,8.297162E-2,1.9696099E-1,3.2741287E-1,-0E0,8.850869E-2,2.4963231E-1,1.2396331E-1,-4.694435E-2,1.07718155E-1,5.3724393E-2,-5.2832596E-2,-0E0,3.6213577E-1,9.6479334E-2,-0E0,2.8201672E-1,-0E0,-3.43681E-2,5.6907598E-2,9.15895E-2,-2.4704285E-2,-7.991975E-2,6.0210846E-2,2.0361571E-1,-1.1074642E-1,1.692849E-2,-5.4786824E-2,2.3688026E-1,5.248011E-2,5.654397E-2,-5.0235484E-2,7.9205E-2,-3.9353237E-2,8.0687385E-3,1.3817792E-1,-9.9914126E-2,-6.3143047E-3,-6.1920997E-2,-2.2862129E-2,-1.4146898E-2,9.126282E-2,-0E0,1.5606457E-1,-9.086294E-2,-0E0,-7.426203E-3,1.7330334E-1,9.2651896E-2,-6.5931305E-2,2.1682292E-2,-1.7193357E-2,3.5457507E-2,1.0532985E-1,-1.1251405E-1,-0E0,2.27302E-1,-0E0,3.5231557E-1,-1.6556801E-2,-6.9473036E-2,4.4524197E-2,9.410266E-2,-3.5371065E-2,-8.524263E-2,-0E0,-1.12841055E-1,6.697497E-2],"categories":[],"categories_nodes":[],"categories_segments":[],"categories_sizes":[],"default_left":[0,0,0,0,0,0,0,0,0,0,0,0,0,0,0,0,0,0,0,0,0,0,0,0,0,0,0,0,0,0,0,0,0,0,0,0,0,0,0,0,0,0,0,0,0,0,0,0,0,0,0,0,0,0,0,0,0,0,0,0,0,0,0,0,0,0,0,0,0,0,0,0,0,0,0,0,0,0,0,0,0,0,0,0,0,0,0,0,0,0,0,0,0,0,0,0,0,0,0,0,0,0,0,0,0,0,0,0,0,0,0,0,0,0,0,0,0,0,0,0,0,0,0,0,0,0,0,0,0,0,0,0,0,0,0,0,0,0,0,0,0,0,0,0,0,0,0,0,0,0,0,0,0,0,0,0,0,0,0,0,0,0,0,0,0,0,0,0,0,0,0,0,0,0,0,0,0,0,0,0,0,0,0,0,0,0,0,0,0,0,0,0,0,0,0,0,0,0,0,0,0,0,0,0,0,0,0,0,0,0,0,0,0,0,0,0,0,0,0,0,0,0,0,0,0,0,0,0,0,0,0,0,0,0,0,0,0,0,0,0,0,0,0,0,0,0,0,0,0,0,0,0,0,0,0,0,0,0,0,0,0,0,0,0,0,0,0,0,0,0,0,0,0,0,0,0,0,0,0,0,0,0,0,0,0,0,0,0,0,0,0,0,0,0,0,0,0,0,0,0,0,0,0,0,0,0,0,0,0,0,0,0,0,0,0,0,0,0,0,0,0,0,0,0,0,0,0,0,0,0,0,0,0,0,0,0,0,0,0,0,0,0,0],"id":2,"left_children":[1,3,5,7,9,11,13,15,17,19,21,23,25,27,29,31,33,35,37,39,41,43,45,47,49,51,53,55,57,59,61,63,65,67,69,71,73,75,77,79,81,83,85,87,89,91,93,95,97,99,101,103,105,107,109,111,113,115,117,119,121,-1,123,125,127,129,131,-1,-1,133,-1,135,137,139,141,143,145,147,149,151,153,155,-1,157,159,161,163,-1,165,167,169,171,173,-1,-1,-1,-1,175,177,-1,-1,179,181,183,185,187,-1,-1,189,-1,-1,191,193,195,197,199,201,-1,203,-1,205,207,209,211,-1,-1,-1,-1,213,215,-1,217,-1,-1,-1,-1,219,-1,221,223,225,227,229,-1,-1,231,233,235,237,239,241,-1,243,245,247,-1,-1,249,251,253,255,-1,257,259,261,263,265,267,269,271,-1,273,275,-1,-1,277,-1,279,-1,281,283,285,287,289,291,293,-1,295,297,299,301,303,305,307,309,311,313,-1,315,317,319,321,323,325,327,329,-1,331,333,335,337,339,341,-1,-1,-1,-1,-1,-1,-1,-1,-1,-1,-1,-1,-1,-1,-1,-1,-1,-1,-1,-1,-1,-1,-1,-1,-1,-1,-1,-1,-1,-1,-1,-1,-1,-1,-1,-1,-1,-1,-1,-1,-1,-1,-1,-1,-1,-1,-1,-1,-1,-1,-1,-1,-1,-1,-1,-1,-1,-1,-1,-1,-1,-1,-1,-1,-1,-1,-1,-1,-1,-1,-1,-1,-1,-1,-1,-1,-1,-1,-1,-1,-1,-1,-1,-1,-1,-1,-1,-1,-1,-1,-1,-1,-1,-1,-1,-1,-1,-1,-1,-1,-1,-1,-1,-1,-1,-1,-1,-1,-1,-1,-1,-1,-1,-1,-1,-1,-1,-1,-1,-1,-1,-1,-1,-1,-1,-1,-1,-1,-1,-1],"loss_changes":[7.563942E2,2.9836145E2,2.2173936E2,8.590643E1,2.1231989E2,3.8785144E2,1.5672485E2,1.817308E1,5.4220943E1,1.300774E2,2.2261496E1,8.76604E1,5.9819397E1,7.814392E1,3.4083496E1,1.5823372E1,2.7194252E0,3.6750244E1,3.1703562E1,6.971454E1,6.595819E1,2.0161274E1,4.2463036E0,3.3440155E1,4.2531906E1,4.9989563E1,2.5517662E1,5.52175E1,3.8117893E1,3.4546555E1,3.7920532E0,1.0983811E1,1.1532265E1,8.118987E-2,1.4065195E0,6.1744337E0,2.671114E1,6.4014053E0,2.2964882E1,8.679974E1,1.2891296E1,4.396228E1,4.5017273E1,1.0041613E1,3.6771164E1,5.997938E0,5.930519E-2,3.0741296E0,7.9877014E0,8.118492E0,2.8179054E1,3.1806408E1,2.5228947E1,1.6384926E1,2.5603485E0,5.1812775E1,2.8375458E1,1.7285095E1,2.7479729E1,2.9157639E1,2.1042175E1,0E0,3.3815918E0,1.5157646E0,5.2524576E0,4.5202713E0,1.8855362E0,0E0,0E0,1.179771E0,0E0,3.2062774E0,4.1555595E-1,2.1675264E1,1.72379E1,4.6245885E-1,6.203762E0,2.166779E1,9.476608E0,8.533791E0,5.7714355E1,1.0372238E0,0E0,4.0909454E1,1.1734893E1,7.824814E0,6.93476E0,0E0,7.365281E0,1.3555805E1,9.869776E0,2.2255507E0,4.82193E-1,0E0,0E0,0E0,0E0,1.077948E1,1.181263E1,0E0,0E0,1.2814766E1,1.480336E1,4.1601334E0,1.13965845E1,1.0307943E1,0E0,0E0,1.3389141E1,0E0,0E0,5.3065174E1,6.5237625E1,1.5109863E1,1.3488832E1,1.694284E1,1.633935E1,0E0,2.2718367E1,0E0,1.7332001E0,2.5866756E1,1.97155E1,3.4382324E0,0E0,0E0,0E0,0E0,1.3668275E0,2.7434921E0,0E0,2.2503357E0,0E0,0E0,0E0,0E0,8.4852695E-2,0E0,9.069338E-1,9.632552E0,6.8690643E0,1.5117722E1,2.3030207E0,0E0,0E0,2.2420883E0,4.5316086E0,1.0182491E1,1.4352299E1,3.8889728E0,1.8603516E0,0E0,1.5356884E1,4.6600494E1,5.8372528E1,0E0,0E0,5.8565636E0,3.3170853E1,4.0726633E0,4.1058073E0,0E0,8.0656433E-1,3.3293962E0,3.6306438E0,1.0814552E0,2.8456175E-1,8.570412E0,2.4071085E0,3.4879315E0,0E0,5.64397E-1,8.463764E-2,0E0,0E0,3.9956055E0,0E0,6.0490847E-1,0E0,7.0773163E0,8.204878E0,1.0222349E1,6.241789E0,2.5399995E-1,5.8686066E0,7.965582E0,0E0,4.9036016E0,7.6312847E0,3.1677462E1,8.7245865E0,2.748584E1,7.865164E0,2.8468964E1,2.4744692E1,1.0938515E1,2.1170212E1,0E0,8.89144E0,4.076248E0,2.1424332E0,7.162556E0,1.2110767E1,6.0294294E0,1.5873413E1,1.5404663E0,0E0,4.149975E0,1.5415353E1,2.4649399E1,2.5623795E1,6.468979E0,5.958664E0,0E0,0E0,0E0,0E0,0E0,0E0,0E0,0E0,0E0,0E0,0E0,0E0,0E0,0E0,0E0,0E0,0E0,0E0,0E0,0E0,0E0,0E0,0E0,0E0,0E0,0E0,0E0,0E0,0E0,0E0,0E0,0E0,0E0,0E0,0E0,0E0,0E0,0E0,0E0,0E0,0E0,0E0,0E0,0E0,0E0,0E0,0E0,0E0,0E0,0E0,0E0,0E0,0E0,0E0,0E0,0E0,0E0,0E0,0E0,0E0,0E0,0E0,0E0,0E0,0E0,0E0,0E0,0E0,0E0,0E0,0E0,0E0,0E0,0E0,0E0,0E0,0E0,0E0,0E0,0E0,0E0,0E0,0E0,0E0,0E0,0E0,0E0,0E0,0E0,0E0,0E0,0E0,0E0,0E0,0E0,0E0,0E0,0E0,0E0,0E0,0E0,0E0,0E0,0E0,0E0,0E0,0E0,0E0,0E0,0E0,0E0,0E0,0E0,0E0,0E0,0E0,0E0,0E0,0E0,0E0,0E0,0E0,0E0,0E0,0E0,0E0,0E0,0E0,0E0,0E0],"parents":[2147483647,0,0,1,1,2,2,3,3,4,4,5,5,6,6,7,7,8,8,9,9,10,10,11,11,12,12,13,13,14,14,15,15,16,16,17,17,18,18,19,19,20,20,21,21,22,22,23,23,24,24,25,25,26,26,27,27,28,28,29,29,30,30,31,31,32,32,33,33,34,34,35,35,36,36,37,37,38,38,39,39,40,40,41,41,42,42,43,43,44,44,45,45,46,46,47,47,48,48,49,49,50,50,51,51,52,52,53,53,54,54,55,55,56,56,57,57,58,58,59,59,60,60,62,62,63,63,64,64,65,65,66,66,69,69,71,71,72,72,73,73,74,74,75,75,76,76,77,77,78,78,79,79,80,80,81,81,83,83,84,84,85,85,86,86,88,88,89,89,90,90,91,91,92,92,97,97,98,98,101,101,102,102,103,103,104,104,105,105,108,108,111,111,112,112,113,113,114,114,115,115,116,116,118,118,120,120,121,121,122,122,123,123,128,128,129,129,131,131,136,136,138,138,139,139,140,140,141,141,142,142,145,145,146,146,147,147,148,148,149,149,150,150,152,152,153,153,154,154,157,157,158,158,159,159,160,160,162,162,163,163,164,164,165,165,166,166,167,167,168,168,169,169,171,171,172,172,175,175,177,177,179,179,180,180,181,181,182,182,183,183,184,184,185,185,187,187,188,188,189,189,190,190,191,191,192,192,193,193,194,194,195,195,196,196,198,198,199,199,200,200,201,201,202,202,203,203,204,204,205,205,207,207,208,208,209,209,210,210,211,211,212,212],"right_children":[2,4,6,8,10,12,14,16,18,20,22,24,26,28,30,32,34,36,38,40,42,44,46,48,50,52,54,56,58,60,62,64,66,68,70,72,74,76,78,80,82,84,86,88,90,92,94,96,98,100,102,104,106,108,110,112,114,116,118,120,122,-1,124,126,128,130,132,-1,-1,134,-1,136,138,140,142,144,146,148,150,152,154,156,-1,158,160,162,164,-1,166,168,170,172,174,-1,-1,-1,-1,176,178,-1,-1,180,182,184,186,188,-1,-1,190,-1,-1,192,194,196,198,200,202,-1,204,-1,206,208,210,212,-1,-1,-1,-1,214,216,-1,218,-1,-1,-1,-1,220,-1,222,224,226,228,230,-1,-1,232,234,236,238,240,242,-1,244,246,248,-1,-1,250,252,254,256,-1,258,260,262,264,266,268,270,272,-1,274,276,-1,-1,278,-1,280,-1,282,284,286,288,290,292,294,-1,296,298,300,302,304,306,308,310,312,314,-1,316,318,320,322,324,326,328,330,-1,332,334,336,338,340,342,-1,-1,-1,-1,-1,-1,-1,-1,-1,-1,-1,-1,-1,-1,-1,-1,-1,-1,-1,-1,-1,-1,-1,-1,-1,-1,-1,-1,-1,-1,-1,-1,-1,-1,-1,-1,-1,-1,-1,-1,-1,-1,-1,-1,-1,-1,-1,-1,-1,-1,-1,-1,-1,-1,-1,-1,-1,-1,-1,-1,-1,-1,-1,-1,-1,-1,-1,-1,-1,-1,-1,-1,-1,-1,-1,-1,-1,-1,-1,-1,-1,-1,-1,-1,-1,-1,-1,-1,-1,-1,-1,-1,-1,-1,-1,-1,-1,-1,-1,-1,-1,-1,-1,-1,-1,-1,-1,-1,-1,-1,-1,-1,-1,-1,-1,-1,-1,-1,-1,-1,-1,-1,-1,-1,-1,-1,-1,-1,-1,-1],"split_conditions":[2.6145E0,6.67343E2,3.78E0,4.9348E0,3.19748E1,3.01E0,1.5196714E3,5.4E0,3.66E2,6.1356E1,3.6307785E1,1.6476E1,1.6108667E0,1.26778E-1,3.5848E0,2.295E0,2.75E2,6.458333E-1,1.2E1,2.5537E0,2.8034E-1,1.9066667E2,1.37772E3,1.84E0,1.6131E0,4.7733334E2,2.0848668E0,4.9348E0,1.5466667E2,7.225E1,2.85E1,-3.3333334E-1,1.85454E-1,4.0664E0,2.01963E1,2.90759E-2,2.9241E0,3.92E2,3.33792E1,3.4857143E1,2.82846E-1,6.428571E0,2.54375E1,-5.714286E0,1E2,3.53E2,4.89856E1,1.41923E-1,5.7366E1,3.43905E2,1.96E2,1.425E1,1.2833333E2,2.8576E0,1.88842E-3,1.6108667E0,9.84E2,6.6576E0,-3.142857E0,3.5333333E0,9.3333336E1,4.1315682E-2,2.14765E0,5.01421E-2,6.6666664E1,5.54E2,4.368E3,8.467163E-2,-0E0,3.96257E-2,2.116778E-2,4.133333E0,9.7333336E1,2.2748E-1,5.52E2,1.84108E-1,2.8576E0,3.2455E1,5.1E2,1.848015E1,1.5196714E3,7.90642E2,4.929119E-1,1.925175E0,5.733333E0,1.7052E1,7.2335E0,2.3745662E-1,2.66345E0,9.1E1,2.142857E0,1.0427625E3,8.26779E2,-1.1957667E-1,-0E0,6.700507E-2,-9.541047E-2,3.03696E1,6.74485E2,8.975082E-2,3.2289243E-1,1.3E1,2.3333333E0,1.04E2,2.2966E-1,3.44165E0,4.2481223E-1,-1.3456397E-1,1.4666667E1,4.181696E-1,4.2881206E-2,1.8E2,2.1811428E0,2.8561E0,2.742E0,2.4652E-1,1.5377E0,3.18821E-1,1.82329E-1,1.769033E-1,1.688E3,1.6789714E0,1.9044E0,6.86E2,2.5493555E-2,-0E0,-8.7060526E-2,3.37451E-1,3.3004E0,6.27229E2,-0E0,2.45412E2,1.7635074E-2,-0E0,-8.338812E-2,5.1050868E-2,1.36702E-2,-1.18935995E-1,2.75544E1,7.52E2,2.70496E1,5.13865E2,6.1666665E0,8.489924E-2,-0E0,2.20224E-1,1.125775E0,5E1,2.54876E1,2.07604E1,3.4E2,-9.398648E-2,4.2E1,2.60196E1,1.65E1,2.9764995E-2,2.8374782E-1,1.001E3,9.813333E2,3E2,3.42E2,1.0394742E-1,1.86631E-1,2.2704E1,1.5555556E0,3.53E2,1.57779E3,1.61768E1,1.96E2,1.5466666E1,1.8941878E-1,7.90642E2,9.4E0,-0E0,-8.6923584E-2,8.666667E0,4.4942737E-1,1.13666664E2,2.5982198E-1,4.36942E1,1.4733333E2,3.8888888E0,7.90642E2,1.99721E3,7.45E1,7.88E1,1.904482E-1,1.57779E3,1.5866667E2,1.93224E3,1.13E2,2.8166E0,1.84E0,1.13E2,6.34959E2,8.43637E-2,8.54604E2,2.0217946E-1,3.225E2,2.2374E1,2.2374E1,5.41181E2,1.47E2,4.6326E0,1.9122143E0,2.6594E3,-0E0,2.31033E3,4.2E1,2.448E2,4.8858E0,2.5E0,1.9825E0,-0E0,8.215031E-2,1.4553675E-1,-0E0,2.6130157E-2,3.1629893E-1,-3.939065E-2,-0E0,-6.8013854E-2,-4.189474E-3,2.5349863E-2,-5.2248392E-2,1.973415E-1,5.9873287E-2,1.3519381E-1,3.8528228E-1,6.9958225E-2,-0E0,2.7996E-2,-9.1357864E-2,1.7244685E-2,-1.1974518E-1,-9.137578E-2,1.8464005E-2,1.9406889E-2,-4.3042157E-2,-3.0002391E-2,9.035129E-2,-1.06457874E-1,-3.3618797E-2,1.4051344E-1,-7.6755094E-3,1.4816323E-1,-1.2998177E-2,5.033753E-1,2.0557432E-1,-7.389484E-2,7.81518E-2,1.1130632E-1,3.169478E-2,1.01705454E-1,1.03341555E-2,-0E0,-7.076264E-2,2.071346E-1,3.5753152E-1,9.295846E-2,-5.513743E-2,2.0416318E-1,5.865447E-2,-5.2797206E-2,-1.1417277E-1,2.7485637E-2,-0E0,-0E0,1.8334019E-1,-0E0,9.80274E-2,-4.6513677E-2,1.1403167E-3,-0E0,-3.9232258E-2,-0E0,8.297162E-2,1.9696099E-1,3.2741287E-1,-0E0,8.850869E-2,2.4963231E-1,1.2396331E-1,-4.694435E-2,1.07718155E-1,5.3724393E-2,-5.2832596E-2,-0E0,3.6213577E-1,9.6479334E-2,-0E0,2.8201672E-1,-0E0,-3.43681E-2,5.6907598E-2,9.15895E-2,-2.4704285E-2,-7.991975E-2,6.0210846E-2,2.0361571E-1,-1.1074642E-1,1.692849E-2,-5.4786824E-2,2.3688026E-1,5.248011E-2,5.654397E-2,-5.0235484E-2,7.9205E-2,-3.9353237E-2,8.0687385E-3,1.3817792E-1,-9.9914126E-2,-6.3143047E-3,-6.1920997E-2,-2.2862129E-2,-1.4146898E-2,9.126282E-2,-0E0,1.5606457E-1,-9.086294E-2,-0E0,-7.426203E-3,1.7330334E-1,9.2651896E-2,-6.5931305E-2,2.1682292E-2,-1.7193357E-2,3.5457507E-2,1.0532985E-1,-1.1251405E-1,-0E0,2.27302E-1,-0E0,3.5231557E-1,-1.6556801E-2,-6.9473036E-2,4.4524197E-2,9.410266E-2,-3.5371065E-2,-8.524263E-2,-0E0,-1.12841055E-1,6.697497E-2],"split_indices":[8,5,18,18,9,8,5,43,53,67,9,9,17,2,8,8,53,42,51,8,3,51,5,43,17,53,17,18,51,16,16,42,2,18,9,2,17,53,9,51,2,43,15,42,65,53,9,2,67,5,60,15,16,36,2,17,51,36,42,13,16,0,17,2,16,51,60,0,0,2,0,43,16,3,51,2,36,5,53,9,5,5,0,17,13,9,18,0,17,60,42,5,5,0,0,0,0,36,5,0,0,15,42,60,3,8,0,0,51,0,0,65,17,8,8,3,17,0,2,0,53,17,17,53,0,0,0,0,18,5,0,5,0,0,0,0,2,0,36,51,9,5,43,0,0,2,8,15,36,36,51,0,65,36,15,0,0,51,60,51,53,0,2,9,42,53,5,67,53,46,0,5,13,0,0,43,0,45,0,67,51,13,5,5,16,16,0,5,45,5,53,8,43,53,5,2,5,0,16,9,9,5,53,18,17,5,0,5,65,16,18,42,17,0,0,0,0,0,0,0,0,0,0,0,0,0,0,0,0,0,0,0,0,0,0,0,0,0,0,0,0,0,0,0,0,0,0,0,0,0,0,0,0,0,0,0,0,0,0,0,0,0,0,0,0,0,0,0,0,0,0,0,0,0,0,0,0,0,0,0,0,0,0,0,0,0,0,0,0,0,0,0,0,0,0,0,0,0,0,0,0,0,0,0,0,0,0,0,0,0,0,0,0,0,0,0,0,0,0,0,0,0,0,0,0,0,0,0,0,0,0,0,0,0,0,0,0,0,0,0,0,0,0],"split_type":[0,0,0,0,0,0,0,0,0,0,0,0,0,0,0,0,0,0,0,0,0,0,0,0,0,0,0,0,0,0,0,0,0,0,0,0,0,0,0,0,0,0,0,0,0,0,0,0,0,0,0,0,0,0,0,0,0,0,0,0,0,0,0,0,0,0,0,0,0,0,0,0,0,0,0,0,0,0,0,0,0,0,0,0,0,0,0,0,0,0,0,0,0,0,0,0,0,0,0,0,0,0,0,0,0,0,0,0,0,0,0,0,0,0,0,0,0,0,0,0,0,0,0,0,0,0,0,0,0,0,0,0,0,0,0,0,0,0,0,0,0,0,0,0,0,0,0,0,0,0,0,0,0,0,0,0,0,0,0,0,0,0,0,0,0,0,0,0,0,0,0,0,0,0,0,0,0,0,0,0,0,0,0,0,0,0,0,0,0,0,0,0,0,0,0,0,0,0,0,0,0,0,0,0,0,0,0,0,0,0,0,0,0,0,0,0,0,0,0,0,0,0,0,0,0,0,0,0,0,0,0,0,0,0,0,0,0,0,0,0,0,0,0,0,0,0,0,0,0,0,0,0,0,0,0,0,0,0,0,0,0,0,0,0,0,0,0,0,0,0,0,0,0,0,0,0,0,0,0,0,0,0,0,0,0,0,0,0,0,0,0,0,0,0,0,0,0,0,0,0,0,0,0,0,0,0,0,0,0,0,0,0,0,0,0,0,0,0,0,0,0,0,0,0,0,0,0,0,0,0,0,0,0,0,0,0,0,0,0,0,0,0,0],"sum_hessian":[5E3,1.523E3,3.477E3,6.54E2,8.69E2,5.73E2,2.904E3,6.9E1,5.85E2,7.09E2,1.6E2,1.91E2,3.82E2,1.989E3,9.15E2,5.2E1,1.7E1,2.17E2,3.68E2,3.55E2,3.54E2,1.23E2,3.7E1,5E1,1.41E2,1.14E2,2.68E2,1.558E3,4.31E2,5.23E2,3.92E2,1.5E1,3.7E1,6E0,1.1E1,4.3E1,1.74E2,5.2E1,3.16E2,3.37E2,1.8E1,3.18E2,3.6E1,4E1,8.3E1,2.3E1,1.4E1,4E0,4.6E1,1.2E1,1.29E2,6.1E1,5.3E1,2.66E2,2E0,8.23E2,7.35E2,1.14E2,3.17E2,1.03E2,4.2E2,1E0,3.91E2,5E0,1E1,2.8E1,9E0,4E0,2E0,6E0,5E0,1.5E1,2.8E1,1.3E2,4.4E1,2E0,5E1,2.62E2,5.4E1,3.7E1,3E2,1.3E1,5E0,2.51E2,6.7E1,1.9E1,1.7E1,1E0,3.9E1,3.4E1,4.9E1,9E0,1.4E1,1.3E1,1E0,2E0,2E0,2.6E1,2E1,3E0,9E0,4.1E1,8.8E1,1.3E1,4.8E1,5.2E1,1E0,2.1E1,2.45E2,1E0,1E0,1.94E2,6.29E2,6.64E2,7.1E1,1.8E1,9.6E1,3E0,3.14E2,3E0,1E2,8.1E1,3.39E2,3.9E2,1E0,1E0,4E0,1E0,9E0,2.7E1,1E0,8E0,1E0,3E0,3E0,7E0,8E0,5E0,2.3E1,1.12E2,1.8E1,2.5E1,1.9E1,1E0,1E0,6E0,4.4E1,4E1,2.22E2,1.4E1,4E1,6E0,3.1E1,2.28E2,7.2E1,1E0,1.2E1,1.9E1,2.32E2,3.4E1,3.3E1,3E0,1.6E1,6E0,1.1E1,2.9E1,1E1,2.2E1,1.2E1,4.7E1,2E0,5E0,4E0,2E0,1.2E1,2E1,6E0,6E0,1.4E1,2.5E1,1.6E1,8.5E1,3E0,3E0,1E1,4.3E1,5E0,1.1E1,4.1E1,1.1E1,2.34E2,1.29E2,6.5E1,5.74E2,5.5E1,1.08E2,5.56E2,3E0,6.8E1,1E1,8E0,6E0,9E1,1.41E2,1.73E2,9.9E1,1E0,6E0,7.5E1,2.58E2,8.1E1,3.03E2,8.7E1,1E0,8E0,2.6E1,1E0,1E0,7E0,7E0,1E0,1.7E1,6E0,9.6E1,1.6E1,8E0,1E1,2.2E1,3E0,1.1E1,8E0,4E0,2E0,1E0,4.3E1,3.2E1,8E0,1.83E2,3.9E1,1.1E1,3E0,3.2E1,8E0,8E0,2.3E1,2.12E2,1.6E1,7E0,6.5E1,1.7E1,2E0,1.62E2,7E1,6E0,2.8E1,1E1,2.3E1,4E0,1.2E1,2E0,4E0,4E0,7E0,2E1,9E0,5E0,5E0,3E0,1.9E1,9E0,3E0,2.4E1,2.3E1,1E0,4E0,1E0,3E0,1E1,1E1,1E0,5E0,1.3E1,1.2E1,3E0,1.3E1,7.7E1,8E0,1E0,2E0,2E0,1E0,9E0,1E0,1E1,3.3E1,6E0,5E0,3.8E1,3E0,6E0,5E0,1.4E1,2.2E2,8E0,1.21E2,6E0,5.9E1,1.8E1,5.56E2,2.9E1,2.6E1,9.3E1,1.5E1,3.54E2,2.02E2,6E1,8E0,1E0,9E0,4E0,4E0,2E0,4E0,4E0,8.6E1,6.7E1,7.4E1,1.33E2,4E1,9.7E1,2E0,5E0,1E0,1E0,7.4E1,2.41E2,1.7E1,1.7E1,6.4E1,2.97E2,6E0,8.6E1,1E0],"tree_param":{"num_deleted":"0","num_feature":"68","num_nodes":"343","size_leaf_vector":"1"}},{"base_weights":[8.1794825E-4,5.9981537E-1,-2.3416433E-1,7.7472913E-1,-4.3526274E-1,-1.3202825E-1,-8.5469335E-1,2.7312137E-2,9.440286E-1,3.285785E-1,-7.861341E-1,1.8629013E-1,-2.8255236E-1,2.4492319E-1,-9.1392493E-1,2.9109862E-1,-4.9387667E-1,1.6366485E0,7.499835E-1,-1.8152924E-1,1.1991702E0,-8.9375496E-1,3.850552E-1,-2.9564792E-1,3.958808E-1,-1.6066295E-1,-5.1264113E-1,1.3127333E0,-5.2264196E-1,1.6641343E0,-9.321973E-1,3.81711E-1,-5.8689356E-1,-6.352028E-1,-6.22961E-2,1.7999591E-2,1.9368378E0,3.4626156E-1,1.4514836E0,8.282363E-2,-7.87158E-1,1.5515205E0,-8.782782E-2,1.6208267E-1,-1.000655E0,5.719234E-1,-4.5479797E-2,-5.990684E-1,-5.812578E-2,1.5881493E0,3.0916595E-1,-6.195907E-1,-5.7106026E-2,-4.5705974E-1,-9.468767E-1,5.0652146E-1,2.326158E-1,-8.952174E-1,1.1405177E-1,-0E0,2.5563458E-1,-8.14674E-1,-1.1511137E0,5.6449866E-1,-2.1889277E-2,-9.343695E-1,-0E0,-0E0,-7.310494E-1,-3.6233202E-1,-0E0,3.9655384E-1,-7.905306E-1,2.1106067E0,-6.419764E-1,1.2672352E0,1.5001713E-1,1.6079398E0,-5.3244776E-1,5.8194035E-1,-5.06881E-1,-0E0,-8.288167E-2,2.0099142E0,-1.4665216E-1,7.6362824E-1,-1.7253871E-1,-1.1868169E-1,-8.135382E-1,-0E0,6.166305E-1,-9.326943E-1,-3.607756E-1,2.6279274E-2,-8.2174593E-1,2.61309E0,2.0572627E-1,5.3472424E-1,-7.914613E-2,-1.3166115E0,-5.581968E-1,-1.563893E-1,2.3096448E-1,-3.1723276E-1,-6.465244E-1,3.6679223E-1,-1.066904E0,-0E0,1.07400626E-1,-0E0,-9.5944405E-2,-1.2030144E-1,-7.7796245E-1,-1.1809577E0,-3.3889976E-1,8.519284E-1,1.8696892E-1,5.5988365E-1,-2.4181604E-1,-0E0,-1.05518036E-1,7.8835795E-3,-0E0,-2.0679788E-1,4.4192564E-2,-8.249074E-1,-0E0,-4.5469396E-2,-0E0,1.750606E-1,-1.29495E-1,-7.37128E-1,7.475228E-1,-0E0,-8.910958E-1,2.397001E0,4.209758E-1,-0E0,-6.569555E-2,9.956544E-1,2.2225633E0,-4.2368567E-1,6.10874E-1,1.9376327E0,1.0247891E0,-0E0,-7.632052E-2,-0E0,1.1683836E-1,7.34275E-1,-8.405269E-2,1.5442504E0,3.0782053E-1,-5.4269034E-2,1.3603678E-2,1.0543884E0,-0E0,-6.307626E-2,-0E0,2.2403762E-1,-8.7347996E-1,6.7664936E-2,-0E0,-1.0006603E0,-0E0,3.4966043E-1,-5.3452325E-1,-2.2194982E-1,3.2005852E-1,-9.866111E-1,-0E0,2.983791E0,-0E0,2.5141764E-1,-1.2919833E-2,9.362019E-1,3.008005E-1,2.6191023E-1,-4.3764362E-1,-0E0,-1.2814637E-1,-7.24392E-1,-3.327356E-1,-8.589203E-2,-6.2298656E-1,1.6285759E0,4.3975666E-2,4.886952E-1,-3.6331365E-1,9.125679E-1,-6.7971486E-1,-0E0,6.0289923E-2,-0E0,-1.086398E0,-2.459692E-3,1.8607346E-2,9.855651E-2,-8.003004E-1,-2.6959312E-1,-1.1211527E-1,3.6422345E-1,-1.1355868E-1,1.480861E-1,5.330344E-2,7.4675404E-3,1.7791763E-1,-0E0,7.5061835E-2,-3.312193E-3,-6.684079E-2,-0E0,-2.6910862E-2,-1.0749467E-1,-3.995858E-2,2.1426337E-2,-0E0,-1.56165175E-2,-0E0,-0E0,-8.4089264E-2,1.2423318E-1,1.2349498E-2,-8.9508444E-2,-0E0,1.16932504E-1,2.531345E-1,-1.0074174E-2,1.5687576E-1,1.1110882E-1,-0E0,2.738096E-1,9.374308E-2,3.1918412E-1,-4.2388394E-2,7.3219836E-2,-1.0862466E-1,2.0250544E-1,7.501615E-2,1.12461954E-1,-0E0,-1.3849209E-2,6.12323E-2,-6.735737E-2,4.101637E-2,-0E0,1.13950446E-1,8.781273E-2,3.052316E-1,1.16368376E-1,-0E0,-1.7639877E-2,-9.0116374E-2,-1.3386326E-1,-8.116294E-2,-7.03006E-2,4.82761E-2,6.458903E-2,-5.3833816E-3,-5.6258675E-2,8.548595E-2,3.740663E-2,-4.3209113E-2,2.4171421E-1,2.2601366E-2,-9.814165E-2,-0E0,-0E0,-1.2819401E-2,1.685796E-1,3.458852E-1,-0E0,-3.1796448E-2,-2.3222022E-2,1.2782176E-1,1.2290958E-1,4.512059E-2,3.3221193E-2,-7.485498E-2,1.06304966E-1,5.1361034E-3,-6.581648E-2,5.5293985E-5,1.9402297E-2,-7.161838E-2,-5.4077007E-2,-4.170615E-3,8.645487E-3,-2.510422E-2,-7.934879E-2,1.8307185E-2,-0E0,1.9289097E-1,1.2089211E-2,-8.3426364E-2,-6.710861E-2,7.303369E-2,-8.4231794E-2,-2.7847541E-2,1.4470994E-2,2.7716252E-1,-9.787444E-2,-5.218599E-2,-6.2253017E-2,-1.11717306E-1,-6.553684E-2,-8.824994E-2,-0E0,-3.8423028E-2],"categories":[],"categories_nodes":[],"categories_segments":[],"categories_sizes":[],"default_left":[0,0,0,0,0,0,0,0,0,0,0,0,0,0,0,0,0,0,0,0,0,0,0,0,0,0,0,0,0,0,0,0,0,0,0,0,0,0,0,0,0,0,0,0,0,0,0,0,0,0,0,0,0,0,0,0,0,0,0,0,0,0,0,0,0,0,0,0,0,0,0,0,0,0,0,0,0,0,0,0,0,0,0,0,0,0,0,0,0,0,0,0,0,0,0,0,0,0,0,0,0,0,0,0,0,0,0,0,0,0,0,0,0,0,0,0,0,0,0,0,0,0,0,0,0,0,0,0,0,0,0,0,0,0,0,0,0,0,0,0,0,0,0,0,0,0,0,0,0,0,0,0,0,0,0,0,0,0,0,0,0,0,0,0,0,0,0,0,0,0,0,0,0,0,0,0,0,0,0,0,0,0,0,0,0,0,0,0,0,0,0,0,0,0,0,0,0,0,0,0,0,0,0,0,0,0,0,0,0,0,0,0,0,0,0,0,0,0,0,0,0,0,0,0,0,0,0,0,0,0,0,0,0,0,0,0,0,0,0,0,0,0,0,0,0,0,0,0,0,0,0,0,0,0,0,0,0,0,0,0,0,0,0,0,0,0,0,0,0,0,0,0,0,0,0,0,0,0,0,0,0,0,0,0,0,0,0,0,0,0,0,0,0,0,0,0,0,0,0,0,0,0,0,0,0,0,0,0,0],"id":3,"left_children":[1,3,5,7,9,11,13,15,17,19,21,23,25,27,29,31,33,35,37,39,41,43,45,47,49,51,53,55,57,59,61,63,65,67,69,71,73,75,77,79,81,83,-1,85,87,89,-1,91,93,95,97,99,101,103,105,107,-1,109,-1,-1,-1,111,113,115,117,119,121,123,125,127,129,131,133,135,137,139,141,143,145,147,149,-1,-1,151,153,155,157,-1,159,-1,161,163,165,167,169,171,173,175,177,179,181,183,185,187,189,191,193,195,-1,-1,-1,-1,197,199,201,203,205,207,209,-1,-1,-1,-1,211,-1,213,-1,-1,-1,215,217,219,221,-1,223,225,227,-1,-1,229,231,233,235,237,239,241,-1,243,-1,245,-1,247,-1,-1,-1,249,-1,-1,-1,-1,251,-1,-1,253,255,257,259,261,263,265,267,269,271,-1,273,275,277,279,281,-1,-1,283,285,287,289,291,293,295,297,299,301,-1,-1,-1,303,-1,-1,-1,305,307,-1,-1,-1,-1,-1,-1,-1,-1,-1,-1,-1,-1,-1,-1,-1,-1,-1,-1,-1,-1,-1,-1,-1,-1,-1,-1,-1,-1,-1,-1,-1,-1,-1,-1,-1,-1,-1,-1,-1,-1,-1,-1,-1,-1,-1,-1,-1,-1,-1,-1,-1,-1,-1,-1,-1,-1,-1,-1,-1,-1,-1,-1,-1,-1,-1,-1,-1,-1,-1,-1,-1,-1,-1,-1,-1,-1,-1,-1,-1,-1,-1,-1,-1,-1,-1,-1,-1,-1,-1,-1,-1,-1,-1,-1,-1,-1,-1,-1,-1,-1,-1,-1,-1,-1,-1,-1,-1,-1,-1],"loss_changes":[7.041346E2,2.5561905E2,2.2654172E2,1.5175922E2,5.4863594E1,1.4786488E2,3.3625854E1,3.0593317E1,1.2972809E2,2.8995657E1,1.8154907E1,9.989783E1,5.8109818E1,2.1280441E1,2.1926636E1,1.1728364E1,3.8160267E0,1.0202789E2,2.1599149E2,6.948222E0,1.8656097E1,1.5398705E1,1.8739148E0,2.0819393E1,6.943999E1,6.457533E1,1.6045975E1,7.3148556E0,8.734627E0,6.471178E0,1.0332092E1,1.064953E1,3.3796458E0,3.8647346E0,7.1009105E-1,1.001249E1,8.212988E1,8.6962616E1,8.798706E1,7.7276764E0,4.895649E-1,1.8210331E1,0E0,2.8052802E0,3.6958313E0,1.511352E-1,0E0,8.962116E0,1.1688089E1,6.2358643E1,5.6861614E1,8.866203E0,3.2015274E1,1.607077E1,1.3314201E1,2.117115E0,0E0,7.923212E-1,0E0,0E0,0E0,3.298355E0,2.4554443E0,9.378378E0,4.927778E0,2.2148032E0,2.1083858E-2,7.908202E-1,2.9270382E0,1.4744079E-1,3.596607E-1,9.559686E0,8.9707947E-1,7.896124E1,3.4691048E-1,1.883493E1,1.0700272E2,4.702539E1,3.5512977E0,5.7258315E0,5.442089E0,0E0,0E0,5.1839066E0,9.3399554E-1,1.5312996E0,7.2117805E-1,0E0,1.2092518E1,0E0,2.0206118E-1,2.8276367E0,9.689482E0,1.1109717E1,1.4728289E0,2.7234985E1,1.3452179E1,3.7174286E1,2.890868E1,4.8880386E-1,7.6360397E0,2.6823256E1,7.280869E1,1.3727043E1,1.3738831E1,8.368928E-1,1.9260025E0,4.1204162E-2,0E0,0E0,0E0,0E0,1.1703445E1,1.4938354E-1,2.2946268E1,8.780422E0,5.9143305E0,1.9622512E0,2.2574234E0,0E0,0E0,0E0,0E0,3.5486296E-2,0E0,3.7772675E0,0E0,0E0,0E0,1.3948968E-1,2.6464067E-2,4.8153973E-1,5.2626724E0,0E0,1.01228714E-1,4.5033936E1,1.8027576E1,0E0,0E0,1.3151848E1,1.1294769E1,1.555373E1,6.627218E1,3.7634583E1,1.7507072E1,9.3471014E-1,0E0,2.4903116E0,0E0,3.8997853E-1,0E0,9.323851E0,0E0,0E0,0E0,1.4687109E-1,0E0,0E0,0E0,0E0,2.9258766E0,0E0,0E0,5.057945E-1,1.6447923E0,2.5503397E0,5.4845333E0,1.1837989E1,9.926058E0,5.313568E-1,5.574921E-2,1.3550537E1,2.2864902E-1,0E0,4.6677246E0,2.3428802E1,1.4519716E1,2.02396E1,1.4030207E1,0E0,0E0,5.089325E0,6.4384108E0,2.3647236E1,2.0147194E1,2.1865799E1,1.9087286E1,6.640606E0,1.1470726E1,4.6174464E0,1.0343262E1,0E0,0E0,0E0,1.2974014E0,0E0,0E0,0E0,2.5064697E0,1.1584225E-1,0E0,0E0,0E0,0E0,0E0,0E0,0E0,0E0,0E0,0E0,0E0,0E0,0E0,0E0,0E0,0E0,0E0,0E0,0E0,0E0,0E0,0E0,0E0,0E0,0E0,0E0,0E0,0E0,0E0,0E0,0E0,0E0,0E0,0E0,0E0,0E0,0E0,0E0,0E0,0E0,0E0,0E0,0E0,0E0,0E0,0E0,0E0,0E0,0E0,0E0,0E0,0E0,0E0,0E0,0E0,0E0,0E0,0E0,0E0,0E0,0E0,0E0,0E0,0E0,0E0,0E0,0E0,0E0,0E0,0E0,0E0,0E0,0E0,0E0,0E0,0E0,0E0,0E0,0E0,0E0,0E0,0E0,0E0,0E0,0E0,0E0,0E0,0E0,0E0,0E0,0E0,0E0,0E0,0E0,0E0,0E0,0E0,0E0,0E0,0E0,0E0,0E0,0E0,0E0,0E0,0E0,0E0,0E0,0E0],"parents":[2147483647,0,0,1,1,2,2,3,3,4,4,5,5,6,6,7,7,8,8,9,9,10,10,11,11,12,12,13,13,14,14,15,15,16,16,17,17,18,18,19,19,20,20,21,21,22,22,23,23,24,24,25,25,26,26,27,27,28,28,29,29,30,30,31,31,32,32,33,33,34,34,35,35,36,36,37,37,38,38,39,39,40,40,41,41,43,43,44,44,45,45,47,47,48,48,49,49,50,50,51,51,52,52,53,53,54,54,55,55,57,57,61,61,62,62,63,63,64,64,65,65,66,66,67,67,68,68,69,69,70,70,71,71,72,72,73,73,74,74,75,75,76,76,77,77,78,78,79,79,80,80,83,83,84,84,85,85,86,86,88,88,90,90,91,91,92,92,93,93,94,94,95,95,96,96,97,97,98,98,99,99,100,100,101,101,102,102,103,103,104,104,105,105,106,106,107,107,112,112,113,113,114,114,115,115,116,116,117,117,118,118,123,123,125,125,129,129,130,130,131,131,132,132,134,134,135,135,136,136,139,139,140,140,141,141,142,142,143,143,144,144,145,145,147,147,149,149,151,151,155,155,160,160,163,163,164,164,165,165,166,166,167,167,168,168,169,169,170,170,171,171,172,172,174,174,175,175,176,176,177,177,178,178,181,181,182,182,183,183,184,184,185,185,186,186,187,187,188,188,189,189,190,190,194,194,198,198,199,199],"right_children":[2,4,6,8,10,12,14,16,18,20,22,24,26,28,30,32,34,36,38,40,42,44,46,48,50,52,54,56,58,60,62,64,66,68,70,72,74,76,78,80,82,84,-1,86,88,90,-1,92,94,96,98,100,102,104,106,108,-1,110,-1,-1,-1,112,114,116,118,120,122,124,126,128,130,132,134,136,138,140,142,144,146,148,150,-1,-1,152,154,156,158,-1,160,-1,162,164,166,168,170,172,174,176,178,180,182,184,186,188,190,192,194,196,-1,-1,-1,-1,198,200,202,204,206,208,210,-1,-1,-1,-1,212,-1,214,-1,-1,-1,216,218,220,222,-1,224,226,228,-1,-1,230,232,234,236,238,240,242,-1,244,-1,246,-1,248,-1,-1,-1,250,-1,-1,-1,-1,252,-1,-1,254,256,258,260,262,264,266,268,270,272,-1,274,276,278,280,282,-1,-1,284,286,288,290,292,294,296,298,300,302,-1,-1,-1,304,-1,-1,-1,306,308,-1,-1,-1,-1,-1,-1,-1,-1,-1,-1,-1,-1,-1,-1,-1,-1,-1,-1,-1,-1,-1,-1,-1,-1,-1,-1,-1,-1,-1,-1,-1,-1,-1,-1,-1,-1,-1,-1,-1,-1,-1,-1,-1,-1,-1,-1,-1,-1,-1,-1,-1,-1,-1,-1,-1,-1,-1,-1,-1,-1,-1,-1,-1,-1,-1,-1,-1,-1,-1,-1,-1,-1,-1,-1,-1,-1,-1,-1,-1,-1,-1,-1,-1,-1,-1,-1,-1,-1,-1,-1,-1,-1,-1,-1,-1,-1,-1,-1,-1,-1,-1,-1,-1,-1,-1,-1,-1,-1,-1],"split_conditions":[1.90141E1,-6.18E0,6.0058E-1,1.835E-1,2.2046E2,2.2188E2,1.4666667E1,1.3266667E2,6.76E2,9.1E-1,2.5625E3,2.098E-1,6.5687E2,7E0,1.925E1,4.8057144E3,4.0333332E1,1.44E2,9.442286E0,4.343E-1,7.0938E-1,-1.3333334E0,5.3364E-1,1.1794E-1,1.5E1,1.4846E-1,7.8E1,1.13666664E2,1.03E2,6.388E-1,7.2918E-1,2.58688E2,2.08E2,1.3E1,1.10864E2,6.5432E1,1.102E3,1.425E1,4.608E3,4.6E0,-6.06E0,5.2E1,-8.782782E-2,1.19E2,4E1,1.539E-1,-4.5479797E-2,5.1333332E1,2.34E2,-7.69E0,4.652E-1,3.07916E1,2.304E3,3.3388E-1,2.1166E1,1.21824E2,2.326158E-1,1.97625E1,1.1405177E-1,-0E0,2.5563458E-1,3.6E0,2.3363333E3,8E1,6.005E2,6.9E-1,1.466E-1,1.2546E1,6.6E2,-1.792E1,2.838144E2,1.0621E1,2.0356E-1,1.023208E2,4.41E2,9.45E2,9.61E2,4.096E3,2.12355E2,2.3814E-1,1.2666667E1,-0E0,-8.288167E-2,6.0254932E1,4.8888E-1,1.8666666E1,1.461888E2,-1.1868169E-1,6.5E2,-0E0,4.096E3,1.93344E2,7.37E2,6.571429E0,7.92E2,2.5938E1,2.85E1,1.047E3,2.75E1,2.39E-2,9.742E-2,1.77175E3,1.8E1,1.2666667E1,7E0,8.8E1,6.628E2,8.613333E2,1.07400626E-1,-0E0,-9.5944405E-2,-1.2030144E-1,6.8E1,1.5233333E2,7.518E-1,1.1983E2,1.1875254E1,1.5233333E2,-1.652E1,-0E0,-1.05518036E-1,7.8835795E-3,-0E0,6.562E-2,4.4192564E-2,2.0733333E2,-0E0,-4.5469396E-2,-0E0,4.356E3,1.445E-1,1.28E2,3.69582E1,-0E0,2.482848E2,2.7896E-1,1.683E1,-0E0,-6.569555E-2,-8.06E0,1.345728E2,8.96E0,4.6268335E3,6.55E1,7.625E0,4.126E-1,-7.632052E-2,8.1925E2,1.1683836E-1,3.748E-1,-8.405269E-2,7.3333335E0,3.0782053E-1,-5.4269034E-2,1.3603678E-2,4.18304E2,-0E0,-6.307626E-2,-0E0,2.2403762E-1,6E0,6.7664936E-2,-0E0,1.81622E1,2.5755E1,1.0725394E2,2.0981592E2,8.036667E2,8.2E1,9.6116E1,1.2566E-1,2.54E2,2.6952E-1,2.5141764E-1,2.2246E3,8.036667E2,4.6268335E3,7.29E2,3.1507693E2,-0E0,-1.2814637E-1,7.36E2,9.5E0,1.08E3,1.52E2,4.288E1,4.4555E3,6.25E2,6.91E-2,2.8434782E1,8.64E1,-0E0,6.0289923E-2,-0E0,2.6087E1,-2.459692E-3,1.8607346E-2,9.855651E-2,2.3494E2,9.07616E1,-1.1211527E-1,3.6422345E-1,-1.1355868E-1,1.480861E-1,5.330344E-2,7.4675404E-3,1.7791763E-1,-0E0,7.5061835E-2,-3.312193E-3,-6.684079E-2,-0E0,-2.6910862E-2,-1.0749467E-1,-3.995858E-2,2.1426337E-2,-0E0,-1.56165175E-2,-0E0,-0E0,-8.4089264E-2,1.2423318E-1,1.2349498E-2,-8.9508444E-2,-0E0,1.16932504E-1,2.531345E-1,-1.0074174E-2,1.5687576E-1,1.1110882E-1,-0E0,2.738096E-1,9.374308E-2,3.1918412E-1,-4.2388394E-2,7.3219836E-2,-1.0862466E-1,2.0250544E-1,7.501615E-2,1.12461954E-1,-0E0,-1.3849209E-2,6.12323E-2,-6.735737E-2,4.101637E-2,-0E0,1.13950446E-1,8.781273E-2,3.052316E-1,1.16368376E-1,-0E0,-1.7639877E-2,-9.0116374E-2,-1.3386326E-1,-8.116294E-2,-7.03006E-2,4.82761E-2,6.458903E-2,-5.3833816E-3,-5.6258675E-2,8.548595E-2,3.740663E-2,-4.3209113E-2,2.4171421E-1,2.2601366E-2,-9.814165E-2,-0E0,-0E0,-1.2819401E-2,1.685796E-1,3.458852E-1,-0E0,-3.1796448E-2,-2.3222022E-2,1.2782176E-1,1.2290958E-1,4.512059E-2,3.3221193E-2,-7.485498E-2,1.06304966E-1,5.1361034E-3,-6.581648E-2,5.5293985E-5,1.9402297E-2,-7.161838E-2,-5.4077007E-2,-4.170615E-3,8.645487E-3,-2.510422E-2,-7.934879E-2,1.8307185E-2,-0E0,1.9289097E-1,1.2089211E-2,-8.3426364E-2,-6.710861E-2,7.303369E-2,-8.4231794E-2,-2.7847541E-2,1.4470994E-2,2.7716252E-1,-9.787444E-2,-5.218599E-2,-6.2253017E-2,-1.11717306E-1,-6.553684E-2,-8.824994E-2,-0E0,-3.8423028E-2],"split_indices":[10,22,6,6,55,55,15,45,11,41,11,6,55,54,10,11,15,11,35,6,6,27,6,6,15,6,27,45,16,6,6,29,16,15,29,67,12,15,12,40,22,16,0,45,25,6,0,45,16,22,6,67,11,6,10,29,0,10,0,0,0,40,11,45,11,41,6,10,25,22,59,10,6,67,11,12,11,11,55,6,25,0,0,59,6,40,29,0,11,0,12,29,11,14,25,10,16,12,27,6,6,11,15,25,54,27,55,11,0,0,0,0,16,11,6,55,35,11,22,0,0,0,0,6,0,45,0,0,0,11,6,12,67,0,59,6,10,0,0,22,29,34,11,27,40,6,0,12,0,6,0,15,0,0,0,29,0,0,0,0,27,0,0,67,10,59,59,11,16,67,6,25,6,0,11,11,11,11,25,0,0,12,40,12,16,34,12,11,6,27,16,0,0,0,10,0,0,0,55,67,0,0,0,0,0,0,0,0,0,0,0,0,0,0,0,0,0,0,0,0,0,0,0,0,0,0,0,0,0,0,0,0,0,0,0,0,0,0,0,0,0,0,0,0,0,0,0,0,0,0,0,0,0,0,0,0,0,0,0,0,0,0,0,0,0,0,0,0,0,0,0,0,0,0,0,0,0,0,0,0,0,0,0,0,0,0,0,0,0,0,0,0,0,0,0,0,0,0,0,0,0,0,0,0,0,0,0,0,0],"split_type":[0,0,0,0,0,0,0,0,0,0,0,0,0,0,0,0,0,0,0,0,0,0,0,0,0,0,0,0,0,0,0,0,0,0,0,0,0,0,0,0,0,0,0,0,0,0,0,0,0,0,0,0,0,0,0,0,0,0,0,0,0,0,0,0,0,0,0,0,0,0,0,0,0,0,0,0,0,0,0,0,0,0,0,0,0,0,0,0,0,0,0,0,0,0,0,0,0,0,0,0,0,0,0,0,0,0,0,0,0,0,0,0,0,0,0,0,0,0,0,0,0,0,0,0,0,0,0,0,0,0,0,0,0,0,0,0,0,0,0,0,0,0,0,0,0,0,0,0,0,0,0,0,0,0,0,0,0,0,0,0,0,0,0,0,0,0,0,0,0,0,0,0,0,0,0,0,0,0,0,0,0,0,0,0,0,0,0,0,0,0,0,0,0,0,0,0,0,0,0,0,0,0,0,0,0,0,0,0,0,0,0,0,0,0,0,0,0,0,0,0,0,0,0,0,0,0,0,0,0,0,0,0,0,0,0,0,0,0,0,0,0,0,0,0,0,0,0,0,0,0,0,0,0,0,0,0,0,0,0,0,0,0,0,0,0,0,0,0,0,0,0,0,0,0,0,0,0,0,0,0,0,0,0,0,0,0,0,0,0,0,0,0,0,0,0,0,0,0,0,0,0,0,0,0,0,0,0,0,0],"sum_hessian":[5E3,1.41E3,3.59E3,1.207E3,2.03E2,3.084E3,5.06E2,2.24E2,9.83E2,6.3E1,1.4E2,9.88E2,2.096E3,2.5E1,4.81E2,1.5E2,7.4E1,2.14E2,7.69E2,3.9E1,2.4E1,1.29E2,1.1E1,2.98E2,6.9E2,1.373E3,7.23E2,1.1E1,1.4E1,3E0,4.78E2,1.37E2,1.3E1,5.4E1,2E1,3.4E1,1.8E2,4.89E2,2.8E2,2.6E1,1.3E1,2.1E1,3E0,1.1E1,1.18E2,1E1,1E0,1.29E2,1.69E2,4.6E1,6.44E2,2.51E2,1.122E3,6.43E2,8E1,7E0,4E0,1.2E1,2E0,1E0,2E0,3.14E2,1.64E2,9.6E1,4.1E1,9E0,4E0,6E0,4.8E1,6E0,1.4E1,2.4E1,1E1,1.69E2,1.1E1,8.5E1,4.04E2,2.6E2,2E1,1.5E1,1.1E1,2E0,1.1E1,1.7E1,4E0,5E0,6E0,4.7E1,7.1E1,1E0,9E0,5.2E1,7.7E1,1.51E2,1.8E1,2.6E1,2E1,4.09E2,2.35E2,1.9E1,2.32E2,8.37E2,2.85E2,3.73E2,2.7E2,6E0,7.4E1,4E0,3E0,2E0,1E1,2.1E1,2.93E2,1.57E2,7E0,5.3E1,4.3E1,1E1,3.1E1,1E0,8E0,3E0,1E0,3E0,3E0,4.2E1,6E0,4E0,2E0,9E0,5E0,5E0,1.9E1,1E0,9E0,1.44E2,2.5E1,1E0,1E1,6.7E1,1.8E1,1.79E2,2.25E2,1.65E2,9.5E1,6E0,1.4E1,8E0,7E0,2E0,9E0,1.3E1,4E0,3E0,1E0,4E0,1E0,2E0,4E0,1E0,7E1,7E0,2E0,4.8E1,4E0,1.4E1,6.3E1,8E1,7.1E1,1.4E1,4E0,2.3E1,3E0,2E0,1.8E1,1.49E2,2.6E2,1.19E2,1.16E2,1E0,1.8E1,1.31E2,1.01E2,7.29E2,1.08E2,3.3E1,2.52E2,1.9E1,3.54E2,5E0,2.65E2,2E0,4E0,1E0,7.3E1,3E0,1E0,3E0,2.9E2,3E0,1.54E2,1E0,6E0,1.4E1,3.9E1,4.1E1,2E0,2E0,8E0,2.3E1,8E0,1E0,2E0,2.2E1,2E1,8E0,1E0,4E0,1E0,1E0,4E0,9E0,1E1,8E0,1E0,3E1,1.14E2,1.7E1,8E0,5.7E1,1E1,1.1E1,7E0,1E0,1.78E2,2.06E2,1.9E1,1.38E2,2.7E1,8.2E1,1.3E1,4E0,2E0,3E0,5E0,1E0,1E0,1E1,3E0,3E0,1E0,9E0,6.1E1,1E1,3.8E1,2E0,2E0,9E0,5E0,6.1E1,2E0,2.1E1,5.9E1,2E0,6.9E1,1.3E1,1E0,1E0,3E0,9E0,1.4E1,1E0,2E0,1.6E1,2E0,8.1E1,6.8E1,2.49E2,1.1E1,2.2E1,9.7E1,7.4E1,4.2E1,4E0,1.27E2,5.3E1,4.8E1,3.65E2,3.64E2,8.6E1,2.2E1,7E0,2.6E1,2.32E2,2E1,3E0,1.6E1,3.8E1,3.16E2,4E0,1E0,6.6E1,1.99E2,1.6E1,5.7E1,1.7E2,1.2E2,1E0,2E0],"tree_param":{"num_deleted":"0","num_feature":"68","num_nodes":"309","size_leaf_vector":"1"}},{"base_weights":[7.495394E-4,1.6548839E-1,-4.4754758E-1,-1.7907299E-1,4.586447E-1,-3.1112868E-1,-8.404141E-1,-4.341241E-1,-2.6255261E-2,1.2688271E0,3.2222685E-1,1.1044387E-3,-4.9987093E-1,5.6084347E-1,-8.897049E-1,3.771914E-1,-4.6112248E-1,3.663591E-2,-6.862071E-1,1.5839891E0,3.9312035E-1,-7.07624E-1,4.185485E-1,-3.498643E-1,1.8778737E-1,-1.9033767E-1,-7.440805E-1,3.6625636E-1,-6.890693E-2,-7.5319725E-1,-1.092564E0,9.6793365E-1,-7.3608345E-1,-4.203757E-1,-9.7326E-1,9.7265944E-2,-5.679065E-1,-1.0068119E-1,-9.3589854E-1,-5.5801254E-2,1.6718572E0,6.0154736E-1,-3.259809E-1,-8.2107645E-1,2.014004E-1,1.6285607E0,3.4151068E-1,-5.098387E-1,5.152519E-1,1.4157358E0,-6.739385E-2,-2.7283678E-2,-5.8634645E-1,-7.9682875E-1,-2.888381E-1,9.253936E-1,-7.327239E-1,-8.5087216E-1,-1.5986125E-1,-3.4256447E-2,-1.04341745E-1,1.2215453E0,-0E0,-0E0,-9.465023E-2,-4.929586E-1,-1.3080919E-1,-9.766362E-2,-8.676837E-2,4.0191025E-1,1.4016017E-2,-9.4729915E-2,-2.1567774E-1,-2.4606192E-1,1.361958E0,-9.813602E-1,-0E0,2.910072E-1,-5.666895E-2,7.4667966E-1,1.8441807E0,9.9335504E-1,-2.9756788E-2,-5.549113E-1,7.302445E-2,-9.046018E-1,3.172442E-1,1.431888E0,-9.987098E-2,1.9508499E-1,2.3764143E0,1.05433E0,2.3326403E-1,9.5020466E-2,-5.476008E-1,-0E0,2.1327174E0,-5.4241233E-2,1.645739E0,-2.83178E-1,3.2831034E-1,-1.4613317E-1,9.268286E-1,-0E0,-6.542748E-1,-8.3567244E-1,-2.446406E-1,-0E0,-5.668812E-1,1.3566624E-1,-0E0,-7.891642E-2,-0E0,-1.13174796E-1,-8.902362E-1,-5.5518305E-1,8.022736E-1,-6.618982E-2,2.8676093E-2,1.7078836E-2,1.5732148E-1,-3.673348E-1,-6.1803657E-1,2.1157747E-2,-4.9629128E-1,-0E0,-2.3059001E-2,1.6271485E-1,8.9578515E-1,-1.0003201E0,5.0547145E-2,-4.402589E-1,5.6018865E-1,-0E0,-4.2602003E-1,-0E0,1.8180802E-1,-9.355137E-2,-0E0,-0E0,3.3786867E-2,-3.177304E-2,9.3732965E-1,2.1430304E0,1.3762264E0,-0E0,1.2788439E0,-8.8723457E-1,3.0373287E-1,-6.7661905E-1,-0E0,7.116681E-2,-9.409275E-1,2.494124E-1,-8.310617E-2,8.6419785E-1,4.1431004E-1,1.6322256E0,-3.401519E-2,2.870086E-1,2.7255251E0,1.9066609E0,-1.6763654E-1,3.8375944E-1,-2.8177625E-1,-6.3246787E-1,-3.948123E-2,-4.3497062E-1,1.22591816E-1,3.2123154E-1,-0E0,2.729531E0,9.2670214E-1,1.1500419E-1,-4.139981E-1,5.1458806E-1,-8.2312727E-1,1.2821218E0,-2.0209533E-1,1.3352038E0,-1.7997192E-1,1.211119E-1,-1.65106E-1,-1.6878493E-1,-7.559741E-1,-8.767874E-1,-2.36787E-1,1.5500829E-2,-6.8790786E-2,-1.99594E-1,2.9471463E-1,-6.339969E-1,-0E0,-0E0,-4.7065403E-2,-1.13595515E-1,-8.410283E-1,-0E0,-8.0375046E-1,-0E0,2.7997077E-1,-1.3015399E-2,-5.524746E-2,-6.87305E-2,-3.2327063E-2,-2.7012767E-2,3.0468978E-2,-7.265649E-2,-8.311352E-3,6.829449E-2,-2.8515324E-2,2.6317024E-1,5.8343593E-2,-1.1149807E-1,-0E0,3.3686187E-2,-4.664188E-3,-1.6649889E-2,-7.473507E-2,1.7267658E-1,1.0925578E-2,2.24455E-2,-5.5806157E-3,-0E0,-5.8218077E-2,3.9835726E-3,1.2967812E-1,1.2341605E-1,2.3526025E-1,-6.2185336E-2,1.3687627E-1,1.9201545E-2,-5.1369127E-2,1.3220108E-1,-0E0,-9.194502E-2,-0E0,-0E0,5.7777196E-2,-0E0,-6.774129E-2,-9.4415516E-2,-0E0,1.4071925E-1,1.3170617E-2,-0E0,2.388023E-1,1.6732039E-1,-2.060187E-2,-2.367882E-2,1.1383598E-1,3.3129895E-1,1.5317781E-1,1.5366633E-1,3.0117527E-1,2.0772478E-1,-3.9123055E-2,7.742876E-2,2.688189E-2,-7.3226723E-3,-6.507466E-2,-0E0,-6.868582E-2,1.993117E-2,-7.926611E-2,2.1757743E-4,-7.7836685E-2,-0E0,2.0026665E-2,-0E0,2.7919123E-1,-7.7199854E-2,1.06361434E-1,1.19762175E-1,-1.8424998E-3,-6.960497E-2,-2.221268E-2,-1.0758671E-1,5.5272747E-2,-0E0,-9.622633E-2,1.3711272E-1,-0E0,-2.7717063E-2,2.2130873E-2,1.6127864E-1,-0E0,-0E0,-5.2646983E-2,-0E0,-2.0215254E-2,2.863975E-2,-7.3818736E-2,-7.377571E-2,-0E0,-8.467061E-2,-0E0,-5.8512793E-5,-7.0085675E-2,7.1829304E-2,-6.496933E-2,-0E0,-4.8540507E-2,5.1658746E-2,-0E0,-6.437139E-2,-0E0,-0E0,6.7955195E-3,-0E0,-7.9807304E-2,4.314871E-2,-2.2899522E-2,-0E0,-8.21566E-2,5.7267062E-2,-4.2727146E-2],"categories":[],"categories_nodes":[],"categories_segments":[],"categories_sizes":[],"default_left":[0,0,0,0,0,0,0,0,0,0,0,0,0,0,0,0,0,0,0,0,0,0,0,0,0,0,0,0,0,0,0,0,0,0,0,0,0,0,0,0,0,0,0,0,0,0,0,0,0,0,0,0,0,1,0,0,0,0,0,0,0,0,0,0,0,0,0,0,0,0,0,0,0,0,0,0,0,0,0,0,0,0,0,0,0,0,0,0,0,0,0,0,0,0,0,0,0,0,0,0,0,0,0,0,0,0,0,0,0,0,0,0,0,0,0,0,0,0,0,0,0,0,0,0,0,0,0,0,0,0,0,0,0,0,0,0,0,0,0,0,0,0,0,0,0,0,0,0,0,0,0,0,0,0,0,0,0,0,0,0,0,0,0,0,0,0,0,0,0,0,0,0,0,0,0,0,0,0,0,0,0,0,0,0,0,0,0,0,0,0,0,0,0,0,0,0,0,0,0,0,0,0,0,0,0,0,0,0,0,0,0,0,0,0,0,0,0,0,0,0,0,0,0,0,0,0,0,0,0,0,0,0,0,0,0,0,0,0,0,0,0,0,0,0,0,0,0,0,0,0,0,0,0,0,0,0,0,0,0,0,0,0,0,0,0,0,0,0,0,0,0,0,0,0,0,0,0,0,0,0,0,0,0,0,0,0,0,0,0,0,0,0,0,0,0,0,0,0,0,0,0,0,0,0,0,0,0,0,0,0,0,0,0,0,0,0,0],"id":4,"left_children":[1,3,5,7,9,11,13,15,17,19,21,23,25,27,29,31,33,35,37,39,41,43,45,47,49,51,53,-1,55,57,59,61,63,65,67,69,71,73,75,77,79,81,83,85,87,89,91,93,95,97,99,101,103,105,107,109,111,113,115,117,-1,119,-1,-1,-1,121,123,-1,125,127,129,-1,131,133,135,137,-1,139,-1,141,143,145,147,149,-1,151,153,155,-1,157,159,161,163,-1,165,167,169,-1,171,173,175,177,179,181,183,185,187,189,191,-1,-1,-1,-1,193,195,197,199,-1,-1,-1,-1,201,203,205,207,-1,-1,209,211,213,215,217,219,221,223,-1,-1,-1,-1,-1,-1,-1,225,227,229,231,233,235,237,239,-1,-1,241,-1,-1,243,-1,245,247,249,251,253,255,257,259,261,263,265,-1,-1,267,269,271,273,275,277,279,281,283,285,287,-1,289,291,293,295,297,299,-1,301,303,305,-1,307,-1,-1,309,311,313,315,-1,-1,-1,-1,-1,-1,-1,-1,-1,-1,-1,-1,-1,-1,-1,-1,-1,-1,-1,-1,-1,-1,-1,-1,-1,-1,-1,-1,-1,-1,-1,-1,-1,-1,-1,-1,-1,-1,-1,-1,-1,-1,-1,-1,-1,-1,-1,-1,-1,-1,-1,-1,-1,-1,-1,-1,-1,-1,-1,-1,-1,-1,-1,-1,-1,-1,-1,-1,-1,-1,-1,-1,-1,-1,-1,-1,-1,-1,-1,-1,-1,-1,-1,-1,-1,-1,-1,-1,-1,-1,-1,-1,-1,-1,-1,-1,-1,-1,-1,-1,-1,-1,-1,-1,-1,-1,-1,-1,-1,-1,-1,-1,-1,-1,-1,-1,-1],"loss_changes":[3.6897772E2,3.6977533E2,7.0772156E1,6.501987E1,2.1702408E2,5.9312492E1,2.4088638E1,1.3817856E1,4.4354492E1,7.64039E1,1.677505E2,2.4342356E1,4.623436E1,2.6920416E1,7.37558E0,1.2727364E1,1.1294067E1,3.471665E1,1.2560097E1,3.1585815E1,1.1666454E1,1.5470543E1,1.4251581E2,1.770933E1,7.84323E1,1.7272484E1,7.2469177E0,0E0,5.7476335E0,1.0695984E1,1.2118835E0,4.2342606E0,1.814271E0,1.1251167E1,1.3631516E0,2.1750126E1,1.2088291E1,5.050652E0,3.652214E0,2.2079806E0,2.8976257E1,1.580459E1,3.8167596E0,1.2852501E1,2.3689114E1,9.605528E1,1.1121213E2,5.794716E0,1.7698217E1,2.0775322E1,1.7288368E1,2.1671665E1,3.232996E0,5.5474396E0,3.256843E0,1.5934525E0,2.998612E-1,3.991249E0,1.1163496E1,1.0802858E0,0E0,3.3090057E0,0E0,0E0,0E0,6.069664E0,6.9179125E0,0E0,1.502633E-1,2.0796036E1,2.4581009E1,0E0,8.418075E0,1.4506272E0,2.7872324E-2,6.585121E-1,0E0,9.291643E-2,0E0,7.216078E0,1.9695496E1,1.1566582E1,6.8746223E0,1.1827879E0,0E0,7.486595E0,2.4202589E1,8.235783E0,0E0,1.2134184E1,4.075351E1,2.0066934E2,9.830866E1,0E0,3.942173E0,7.179504E0,1.2263346E1,0E0,2.6735931E1,7.2269945E0,1.4705563E1,1.3067274E1,1.0647018E1,1.8494747E0,2.5807934E0,5.953293E0,3.5024276E0,1.0932314E0,1.2100039E0,0E0,0E0,0E0,0E0,8.7386346E-1,4.8379517E-1,3.5552173E0,1.2577948E1,0E0,0E0,0E0,0E0,1.0765568E1,5.764778E0,7.508734E0,3.1967974E0,0E0,0E0,3.350654E1,2.7494133E1,5.10083E0,2.0829048E1,2.6668081E0,3.7132702E0,2.4900693E-1,1.5137815E0,0E0,0E0,0E0,0E0,0E0,0E0,0E0,9.646009E0,2.59805E1,1.1457657E1,1.1036352E0,4.296734E0,2.2544432E-1,8.8107955E-1,2.1420765E-1,0E0,0E0,7.5420837E0,0E0,0E0,1.5681353E0,0E0,6.024707E0,7.5001793E0,5.43704E0,3.9449585E1,3.5084015E1,4.4251915E1,4.1154144E1,2.3069485E1,5.6098366E0,4.0649924E0,2.714491E0,0E0,0E0,4.5352325E-2,1.1644424E1,8.880379E0,6.0879188E0,4.9386597E0,6.847336E0,1.2315416E0,7.6634884E-1,6.989256E0,9.712265E0,7.7831537E-1,0E0,8.644284E-2,4.563757E0,1.8911438E0,5.517807E0,1.6558654E0,6.9447007E0,0E0,9.3379503E-1,1.1157393E0,3.2847548E-1,0E0,2.0887537E-2,0E0,0E0,1.1237183E0,8.094872E-1,1.1125116E0,1.7318478E0,0E0,0E0,0E0,0E0,0E0,0E0,0E0,0E0,0E0,0E0,0E0,0E0,0E0,0E0,0E0,0E0,0E0,0E0,0E0,0E0,0E0,0E0,0E0,0E0,0E0,0E0,0E0,0E0,0E0,0E0,0E0,0E0,0E0,0E0,0E0,0E0,0E0,0E0,0E0,0E0,0E0,0E0,0E0,0E0,0E0,0E0,0E0,0E0,0E0,0E0,0E0,0E0,0E0,0E0,0E0,0E0,0E0,0E0,0E0,0E0,0E0,0E0,0E0,0E0,0E0,0E0,0E0,0E0,0E0,0E0,0E0,0E0,0E0,0E0,0E0,0E0,0E0,0E0,0E0,0E0,0E0,0E0,0E0,0E0,0E0,0E0,0E0,0E0,0E0,0E0,0E0,0E0,0E0,0E0,0E0,0E0,0E0,0E0,0E0,0E0,0E0,0E0,0E0,0E0,0E0,0E0,0E0,0E0,0E0,0E0,0E0,0E0,0E0,0E0,0E0,0E0,0E0],"parents":[2147483647,0,0,1,1,2,2,3,3,4,4,5,5,6,6,7,7,8,8,9,9,10,10,11,11,12,12,13,13,14,14,15,15,16,16,17,17,18,18,19,19,20,20,21,21,22,22,23,23,24,24,25,25,26,26,28,28,29,29,30,30,31,31,32,32,33,33,34,34,35,35,36,36,37,37,38,38,39,39,40,40,41,41,42,42,43,43,44,44,45,45,46,46,47,47,48,48,49,49,50,50,51,51,52,52,53,53,54,54,55,55,56,56,57,57,58,58,59,59,61,61,65,65,66,66,68,68,69,69,70,70,72,72,73,73,74,74,75,75,77,77,79,79,80,80,81,81,82,82,83,83,85,85,86,86,87,87,89,89,90,90,91,91,92,92,94,94,95,95,96,96,98,98,99,99,100,100,101,101,102,102,103,103,104,104,105,105,106,106,107,107,108,108,113,113,114,114,115,115,116,116,121,121,122,122,123,123,124,124,127,127,128,128,129,129,130,130,131,131,132,132,133,133,134,134,142,142,143,143,144,144,145,145,146,146,147,147,148,148,149,149,152,152,155,155,157,157,158,158,159,159,160,160,161,161,162,162,163,163,164,164,165,165,166,166,167,167,170,170,171,171,172,172,173,173,174,174,175,175,176,176,177,177,178,178,179,179,180,180,182,182,183,183,184,184,185,185,186,186,187,187,189,189,190,190,191,191,193,193,196,196,197,197,198,198,199,199],"right_children":[2,4,6,8,10,12,14,16,18,20,22,24,26,28,30,32,34,36,38,40,42,44,46,48,50,52,54,-1,56,58,60,62,64,66,68,70,72,74,76,78,80,82,84,86,88,90,92,94,96,98,100,102,104,106,108,110,112,114,116,118,-1,120,-1,-1,-1,122,124,-1,126,128,130,-1,132,134,136,138,-1,140,-1,142,144,146,148,150,-1,152,154,156,-1,158,160,162,164,-1,166,168,170,-1,172,174,176,178,180,182,184,186,188,190,192,-1,-1,-1,-1,194,196,198,200,-1,-1,-1,-1,202,204,206,208,-1,-1,210,212,214,216,218,220,222,224,-1,-1,-1,-1,-1,-1,-1,226,228,230,232,234,236,238,240,-1,-1,242,-1,-1,244,-1,246,248,250,252,254,256,258,260,262,264,266,-1,-1,268,270,272,274,276,278,280,282,284,286,288,-1,290,292,294,296,298,300,-1,302,304,306,-1,308,-1,-1,310,312,314,316,-1,-1,-1,-1,-1,-1,-1,-1,-1,-1,-1,-1,-1,-1,-1,-1,-1,-1,-1,-1,-1,-1,-1,-1,-1,-1,-1,-1,-1,-1,-1,-1,-1,-1,-1,-1,-1,-1,-1,-1,-1,-1,-1,-1,-1,-1,-1,-1,-1,-1,-1,-1,-1,-1,-1,-1,-1,-1,-1,-1,-1,-1,-1,-1,-1,-1,-1,-1,-1,-1,-1,-1,-1,-1,-1,-1,-1,-1,-1,-1,-1,-1,-1,-1,-1,-1,-1,-1,-1,-1,-1,-1,-1,-1,-1,-1,-1,-1,-1,-1,-1,-1,-1,-1,-1,-1,-1,-1,-1,-1,-1,-1,-1,-1,-1,-1,-1],"split_conditions":[5.60091E0,1.78424E-1,6.7076E-1,8.08467E-2,-1.328E1,7.0384E2,3.1666667E0,8.7E1,4.59668E0,6.76E2,2.2857144E0,8.3447E0,6.857143E0,6.72598E0,7.518E-1,-4.17E0,3.70372E0,4.8E1,9.044089E0,3.21073E0,9.166667E0,5.36E3,6.5E1,5.0666666E0,1.7725E2,7.32757E-1,1.968E3,3.6625636E-1,3.368E3,1.113296E1,1.05501E0,8.472E2,1.3333334E0,1.1794E-1,2.8504E4,2.13E2,5.36E3,5.3333335E0,8.166667E0,6.989668E2,-1.79125E1,1.92E1,7.733333E0,7.0296E-1,7.2225E0,8.1917E0,3.6842105E0,-1.438E1,7.32757E-1,-1.248E1,5.065E2,6.0432E-1,5.759E-1,9.87166E0,1.33368E3,7.72499E0,2.9166667E0,3.764706E0,3.36E2,9.02495E0,-1.04341745E-1,1.28E2,-0E0,-0E0,-9.465023E-2,8.72E0,1.46784E1,-9.766362E-2,1.29947E2,1.63E2,3.264E3,-9.4729915E-2,2.2642E-1,1.1428572E0,4.69215E0,3.0666666E1,-0E0,2.69337E0,-5.666895E-2,2.9424E-1,4.464E3,1.0602E4,2.0496E4,6.56E2,7.302445E-2,2.3274E-1,4.01377E0,4.14187E0,-9.987098E-2,5.89557E2,4E1,-3.8E0,4.8913E-1,9.5020466E-2,8.82E3,4.92E2,7.6912E0,-5.4241233E-2,7.776E3,2.145E2,5.36E3,3.368E3,5.58E2,6.10049E0,7.9386E0,4.5E1,3.48E2,3.1507693E2,6.6616E-1,1.3566624E-1,-0E0,-7.891642E-2,-0E0,9.94197E-1,1.34E2,4.992E3,7.1568E-1,-6.618982E-2,2.8676093E-2,1.7078836E-2,1.5732148E-1,-6.545E0,3.09876E0,1.1769325E1,9.285714E2,-0E0,-2.3059001E-2,2.5086E2,1.4388E2,1.4933333E1,-1.162E1,1.38936E1,4.095238E0,6.96E1,4.69215E0,-0E0,1.8180802E-1,-9.355137E-2,-0E0,-0E0,3.3786867E-2,-3.177304E-2,1.00492E1,2.4681E-1,7.86E0,1.054704E1,1.688496E3,4.89445E0,1.4808E4,5.27432E2,-0E0,7.116681E-2,2.48E2,2.494124E-1,-8.310617E-2,8.91308E2,4.1431004E-1,3.15597E0,2.4E1,3.78554E0,6.45E0,1.5766666E1,1.96E2,1.98E2,5.9588E-1,4.5072E-1,4.57E0,3.5076E2,1.22591816E-1,3.2123154E-1,6.30332E0,7.086808E2,9.90185E2,6.52553E0,2.91E2,1.958003E-1,8.448E3,1.084779E1,8.28637E0,-7.0266666E0,5.63017E0,1.211119E-1,8.287933E0,8.46644E-1,7.2E1,1.77384E1,6.36686E0,4.0625E0,-6.8790786E-2,5.6592E4,6.375E0,5.034483E0,-0E0,2.13773E3,-4.7065403E-2,-1.13595515E-1,1.4266667E2,1.14791E0,4.2812E0,1.08855E0,2.7997077E-1,-1.3015399E-2,-5.524746E-2,-6.87305E-2,-3.2327063E-2,-2.7012767E-2,3.0468978E-2,-7.265649E-2,-8.311352E-3,6.829449E-2,-2.8515324E-2,2.6317024E-1,5.8343593E-2,-1.1149807E-1,-0E0,3.3686187E-2,-4.664188E-3,-1.6649889E-2,-7.473507E-2,1.7267658E-1,1.0925578E-2,2.24455E-2,-5.5806157E-3,-0E0,-5.8218077E-2,3.9835726E-3,1.2967812E-1,1.2341605E-1,2.3526025E-1,-6.2185336E-2,1.3687627E-1,1.9201545E-2,-5.1369127E-2,1.3220108E-1,-0E0,-9.194502E-2,-0E0,-0E0,5.7777196E-2,-0E0,-6.774129E-2,-9.4415516E-2,-0E0,1.4071925E-1,1.3170617E-2,-0E0,2.388023E-1,1.6732039E-1,-2.060187E-2,-2.367882E-2,1.1383598E-1,3.3129895E-1,1.5317781E-1,1.5366633E-1,3.0117527E-1,2.0772478E-1,-3.9123055E-2,7.742876E-2,2.688189E-2,-7.3226723E-3,-6.507466E-2,-0E0,-6.868582E-2,1.993117E-2,-7.926611E-2,2.1757743E-4,-7.7836685E-2,-0E0,2.0026665E-2,-0E0,2.7919123E-1,-7.7199854E-2,1.06361434E-1,1.19762175E-1,-1.8424998E-3,-6.960497E-2,-2.221268E-2,-1.0758671E-1,5.5272747E-2,-0E0,-9.622633E-2,1.3711272E-1,-0E0,-2.7717063E-2,2.2130873E-2,1.6127864E-1,-0E0,-0E0,-5.2646983E-2,-0E0,-2.0215254E-2,2.863975E-2,-7.3818736E-2,-7.377571E-2,-0E0,-8.467061E-2,-0E0,-5.8512793E-5,-7.0085675E-2,7.1829304E-2,-6.496933E-2,-0E0,-4.8540507E-2,5.1658746E-2,-0E0,-6.437139E-2,-0E0,-0E0,6.7955195E-3,-0E0,-7.9807304E-2,4.314871E-2,-2.2899522E-2,-0E0,-8.21566E-2,5.7267062E-2,-4.2727146E-2],"split_indices":[0,7,6,7,20,56,13,25,0,25,40,19,40,0,6,20,0,57,35,0,13,62,25,40,25,7,66,0,62,0,7,56,13,6,64,25,62,40,13,5,20,57,40,6,19,19,13,20,7,20,25,6,6,0,5,0,13,13,25,0,0,66,0,0,0,28,19,0,5,25,64,0,6,57,0,46,0,0,0,6,62,30,64,66,0,6,0,0,0,5,25,20,7,0,30,66,19,0,30,25,62,62,25,0,19,46,25,25,6,0,0,0,0,7,25,62,6,0,0,0,0,20,0,19,25,0,0,56,5,45,20,19,40,34,0,0,0,0,0,0,0,0,19,7,19,35,56,0,62,5,0,0,25,0,0,5,0,0,66,0,28,40,66,25,6,6,28,56,0,0,0,5,5,0,25,7,30,0,0,20,0,0,19,7,46,35,0,13,0,64,13,13,0,5,0,0,25,7,19,7,0,0,0,0,0,0,0,0,0,0,0,0,0,0,0,0,0,0,0,0,0,0,0,0,0,0,0,0,0,0,0,0,0,0,0,0,0,0,0,0,0,0,0,0,0,0,0,0,0,0,0,0,0,0,0,0,0,0,0,0,0,0,0,0,0,0,0,0,0,0,0,0,0,0,0,0,0,0,0,0,0,0,0,0,0,0,0,0,0,0,0,0,0,0,0,0,0,0,0,0,0,0,0,0,0,0,0,0,0,0,0,0,0,0,0,0,0],"split_type":[0,0,0,0,0,0,0,0,0,0,0,0,0,0,0,0,0,0,0,0,0,0,0,0,0,0,0,0,0,0,0,0,0,0,0,0,0,0,0,0,0,0,0,0,0,0,0,0,0,0,0,0,0,0,0,0,0,0,0,0,0,0,0,0,0,0,0,0,0,0,0,0,0,0,0,0,0,0,0,0,0,0,0,0,0,0,0,0,0,0,0,0,0,0,0,0,0,0,0,0,0,0,0,0,0,0,0,0,0,0,0,0,0,0,0,0,0,0,0,0,0,0,0,0,0,0,0,0,0,0,0,0,0,0,0,0,0,0,0,0,0,0,0,0,0,0,0,0,0,0,0,0,0,0,0,0,0,0,0,0,0,0,0,0,0,0,0,0,0,0,0,0,0,0,0,0,0,0,0,0,0,0,0,0,0,0,0,0,0,0,0,0,0,0,0,0,0,0,0,0,0,0,0,0,0,0,0,0,0,0,0,0,0,0,0,0,0,0,0,0,0,0,0,0,0,0,0,0,0,0,0,0,0,0,0,0,0,0,0,0,0,0,0,0,0,0,0,0,0,0,0,0,0,0,0,0,0,0,0,0,0,0,0,0,0,0,0,0,0,0,0,0,0,0,0,0,0,0,0,0,0,0,0,0,0,0,0,0,0,0,0,0,0,0,0,0,0,0,0,0,0,0,0,0,0,0,0,0,0,0,0,0,0,0,0,0,0],"sum_hessian":[5E3,3.658E3,1.342E3,1.68E3,1.978E3,9.98E2,3.44E2,6.27E2,1.053E3,2.84E2,1.694E3,3.74E2,6.24E2,1.1E1,3.33E2,1.9E1,6.08E2,9.6E2,9.3E1,2.08E2,7.6E1,1.44E2,1.55E3,1.28E2,2.46E2,2.77E2,3.47E2,2E0,9E0,2.02E2,1.31E2,1.3E1,6E0,5.65E2,4.3E1,8.74E2,8.6E1,2.9E1,6.4E1,1E1,1.98E2,6E1,1.6E1,1.29E2,1.5E1,9.2E1,1.458E3,1.09E2,1.9E1,4.3E1,2.03E2,1.98E2,7.9E1,3.09E2,3.8E1,3E0,6E0,1.72E2,3E1,3E0,1.28E2,1.1E1,2E0,1E0,5E0,4.49E2,1.16E2,3.9E1,4E0,1.85E2,6.89E2,3.7E1,4.9E1,2.7E1,2E0,6.2E1,2E0,5E0,5E0,3.2E1,1.66E2,3.8E1,2.2E1,1.4E1,2E0,1.21E2,8E0,8E0,7E0,3.2E1,6E1,1.91E2,1.267E3,2E0,1.07E2,1.4E1,5E0,4E0,3.9E1,1.33E2,7E1,1.77E2,2.1E1,8E0,7.1E1,2.87E2,2.2E1,1.8E1,2E1,2E0,1E0,5E0,1E0,1E1,1.62E2,2.2E1,8E0,2E0,1E0,4E0,7E0,2.28E2,2.21E2,8E1,3.6E1,1E0,3E0,1.26E2,5.9E1,2.3E1,6.66E2,3.9E1,1E1,1E1,1.7E1,1E0,1E0,6.1E1,1E0,1E0,4E0,4E0,2.8E1,1E2,6.6E1,8E0,3E1,7E0,1.5E1,1.2E1,2E0,2E0,1.19E2,3E0,5E0,7E0,1E0,5E0,2.7E1,9E0,5.1E1,1.13E2,7.8E1,9.82E2,2.85E2,9E1,1.7E1,1.1E1,3E0,3E0,2E0,1.5E1,2.4E1,3.1E1,1.02E2,6.1E1,9E0,6E0,1.71E2,1.6E1,5E0,1E0,7E0,1.4E1,5.7E1,2.67E2,2E1,1.3E1,9E0,1E1,8E0,1.9E1,1E0,6E0,4E0,1.9E1,1.43E2,6E0,1.6E1,6E0,2E0,1.14E2,1.14E2,1.54E2,6.7E1,3.8E1,4.2E1,2E1,1.6E1,5.8E1,6.8E1,7E0,5.2E1,2E1,3E0,1.66E2,5E2,2.4E1,1.5E1,2E0,8E0,4E0,6E0,5E0,1.2E1,1E1,1.8E1,3.1E1,6.9E1,2E0,6.4E1,5E0,3E0,2.7E1,3E0,6E0,1E0,9E0,6E0,1E0,1.1E1,1.12E2,7E0,3E0,4E0,2E0,3E0,2E0,2.5E1,5E0,4E0,2.9E1,2.2E1,9.4E1,1.9E1,7E0,7.1E1,1.77E2,8.05E2,1.92E2,9.3E1,1.2E1,7.8E1,1.2E1,5E0,4E0,7E0,1E0,1E0,1E0,1.4E1,2E0,2.2E1,4E0,2.7E1,3.4E1,6.8E1,2E0,5.9E1,2E0,7E0,5E0,1E0,1.43E2,2.8E1,1.3E1,3E0,2E0,3E0,1E0,6E0,7E0,7E0,5.6E1,1E0,2.6E2,7E0,1.5E1,5E0,7E0,6E0,5E0,5E0,6E0,2E0,1.7E1,2E0,2E0,4E0,1E0,1.42E2,3E0,3E0,1E0,1.5E1,3E0,3E0],"tree_param":{"num_deleted":"0","num_feature":"68","num_nodes":"317","size_leaf_vector":"1"}},{"base_weights":[6.613535E-4,1.3861917E-1,-4.3204284E-1,-5.2499354E-1,2.4271469E-1,3.501108E-1,-4.9369228E-1,-5.360148E-1,3.8724276E-1,-5.270419E-2,4.6878716E-1,-1.0273204E0,8.6075014E-1,-3.8576293E-1,-6.931498E-1,-4.6075168E-1,-1.0047332E0,-1.8708037E-1,3.2180485E-1,6.342633E-1,6.872202E-2,-0E0,-1.1129619E0,2.5519402E0,4.9088046E-1,1.8462677E0,-4.2130163E-1,-2.5754952E-1,-7.292928E-1,-1.5947993E-1,-6.162502E-1,-1.0546421E0,-0E0,-3.5177868E-2,-3.610375E-1,9.4302624E-1,1.3498603E-1,8.970087E-1,4.0517986E-1,-6.3565785E-1,2.1742049E-1,-1.1283585E-1,-0E0,3.8082168E-1,5.547428E-1,-4.3180823E-2,6.106783E-1,-2.1168073E-3,2.3726625E0,-2.9526436E-1,-6.595766E-1,7.220391E-1,-6.8434507E-1,-0E0,-7.3808163E-1,5.346957E-1,-4.2252636E-1,-7.213542E-1,-1.5920866E-1,-1.0043432E-1,-0E0,1.6210672E-1,-1.7897236E-1,9.609994E-2,-4.1353774E-1,1.111028E0,-0E0,1.5014714E0,7.195043E-2,2.205346E0,8.323464E-1,1.3198406E0,3.5438976E-1,-8.197163E-1,3.446757E-1,1.223817E0,1.1188719E-1,-7.6212576E-3,1.2337321E-1,-1.4166567E-1,7.4196553E-1,2.5231266E-1,7.394118E-2,-3.35151E-1,1.0391853E0,-9.851475E-1,-5.2700937E-1,1.162056E0,-0E0,-0E0,-6.8326145E-2,8.651451E-2,-0E0,-0E0,-7.50856E-1,1.0564063E0,-3.0293608E-1,-7.569022E-1,2.2823556E-1,-0E0,-8.137857E-1,3.1676006E-1,-9.402512E-1,3.5952783E-1,-3.2526818E-1,-3.521403E-1,1.0184518E-3,6.288429E-1,-2.8121865E-1,-5.1063573E-1,-1.6037913E-1,4.547397E-1,1.2661916E0,-5.9834146E-1,3.9436525E-1,7.7976745E-1,2.0565085E0,-3.5794282E-1,1.6915205E-1,7.904401E-2,2.8664944E0,6.8409044E-1,1.4068444E0,2.4181336E-1,2.2317595E0,4.371502E-1,-7.0176795E-2,-0E0,-8.857601E-1,2.7831915E-1,-7.8130355E-3,1.795123E0,1.2879941E-1,2.560325E-1,7.718685E-2,6.1843965E-2,-7.9131854E-1,1.0418851E0,2.865172E-1,-4.5975575E-1,-0E0,2.1018608E0,-3.3936016E-2,-1.010041E0,-0E0,1.4052564E0,-5.6607145E-1,1.6172917E0,-1.0732039E-2,-0E0,-1.5219862E-2,-4.049316E-1,1.2342426E-1,-6.7751175E-1,-8.9263266E-1,1.4906296E-1,-7.6992816E-4,5.5196427E-2,-4.8596174E-2,-9.17353E-2,-2.0613605E-2,8.3213516E-2,-2.63228E-2,3.2248765E-1,-2.7090166E-2,-7.487634E-4,-8.112102E-2,7.5769206E-3,9.021855E-2,-0E0,-9.119264E-2,4.4038225E-2,-2.6585672E-2,-7.371332E-2,2.7376234E-3,-2.0515162E-2,-7.302628E-2,-1.0199924E-1,4.046849E-3,1.04181916E-1,-2.3089808E-3,-6.3060716E-2,1.8263763E-2,-4.300697E-2,-9.763557E-2,6.0780905E-3,-3.5735477E-2,9.447454E-2,-7.5932525E-2,1.4593236E-1,7.206426E-2,-7.875253E-2,-0E0,7.283331E-2,-0E0,9.174126E-2,-0E0,2.449671E-1,4.3223534E-2,-0E0,-5.260448E-2,1.3087004E-1,9.616959E-3,3.734357E-2,-7.7989474E-2,2.8542548E-1,-0E0,1.2655278E-1,4.869045E-2,5.581977E-2,1.8160088E-1,-1.8821912E-2,1.1460987E-1,-9.622608E-2,2.5141633E-1,1.5597148E-1,3.421348E-2,-4.8081633E-2,8.341261E-3,8.185751E-2,-2.7779598E-2,-0E0,-8.615256E-2,3.581827E-2,-7.0716776E-2,2.5078225E-1,9.6966475E-2,-3.2002572E-2,7.596325E-2,-6.3996715E-3,4.338472E-2,-0E0,-8.9474246E-2,1.7490368E-1,6.07711E-2,8.492432E-2,9.0784775E-3,-1.1105844E-2,-5.3110782E-2,1.3976426E-1,-2.0646377E-2,-0E0,2.857003E-1,-5.1741008E-2,4.6888445E-2,-9.657398E-2,-0E0,-5.8466066E-3,2.481667E-1,-5.7893302E-2,1.3793377E-2,1.8310805E-1,-0E0,-5.1987875E-2,-0E0,1.803374E-2,-0E0,-6.5069854E-2,1.5846883E-1,-8.527133E-2,-0E0],"categories":[],"categories_nodes":[],"categories_segments":[],"categories_sizes":[],"default_left":[0,0,0,0,0,0,0,0,0,0,0,0,0,0,0,0,0,0,0,0,0,0,0,0,0,0,0,0,0,0,0,0,0,0,0,0,0,0,0,0,0,0,0,0,0,0,0,0,0,0,0,0,0,0,0,0,0,0,0,0,0,0,0,0,0,0,0,0,0,0,0,0,0,0,0,0,0,0,0,0,0,0,0,0,0,0,0,0,0,0,0,0,0,0,0,0,0,0,0,0,0,0,0,0,0,0,0,0,0,0,0,0,0,0,0,0,0,0,0,0,0,0,0,0,0,0,0,0,0,0,0,0,0,0,0,0,0,0,0,0,0,0,0,0,0,0,0,0,0,0,0,0,0,0,0,0,0,0,0,0,0,0,0,0,0,0,0,0,0,0,0,0,0,0,0,0,0,0,0,0,0,0,0,0,0,0,0,0,0,0,0,0,0,0,0,0,0,0,0,0,0,0,0,0,0,0,0,0,0,0,0,0,0,0,0,0,0,0,0,0,0,0,0,0,0,0,0,0,0,0,0,0,0,0,0,0,0,0,0,0,0,0,0,0,0,0,0,0,0,0,0,0,0,0,0,0,0,0,0,0,0],"id":5,"left_children":[1,3,5,7,9,11,13,15,-1,17,19,21,23,25,27,29,31,33,35,37,39,-1,41,43,45,47,49,51,53,55,57,59,-1,61,63,65,67,69,71,73,75,-1,-1,-1,77,-1,79,-1,81,83,85,87,89,91,93,95,97,99,101,-1,-1,103,105,107,109,111,113,115,117,119,121,123,125,127,129,131,133,-1,-1,135,137,-1,-1,139,141,143,145,147,-1,-1,-1,-1,149,151,153,155,157,159,161,163,165,167,169,171,173,175,177,179,181,183,185,187,189,191,193,195,197,199,201,203,205,207,209,211,213,215,217,219,221,-1,223,225,227,-1,229,-1,231,233,235,237,239,241,243,245,-1,247,249,251,-1,-1,-1,253,255,257,259,-1,-1,-1,-1,-1,-1,-1,-1,-1,-1,-1,-1,-1,-1,-1,-1,-1,-1,-1,-1,-1,-1,-1,-1,-1,-1,-1,-1,-1,-1,-1,-1,-1,-1,-1,-1,-1,-1,-1,-1,-1,-1,-1,-1,-1,-1,-1,-1,-1,-1,-1,-1,-1,-1,-1,-1,-1,-1,-1,-1,-1,-1,-1,-1,-1,-1,-1,-1,-1,-1,-1,-1,-1,-1,-1,-1,-1,-1,-1,-1,-1,-1,-1,-1,-1,-1,-1,-1,-1,-1,-1,-1,-1,-1,-1,-1,-1,-1,-1,-1,-1,-1,-1,-1,-1,-1],"loss_changes":[2.981812E2,2.617348E2,5.83443E1,2.2668518E1,2.1947441E2,6.1026676E1,2.3031677E1,1.659645E1,0E0,7.1326904E1,1.22431274E2,2.9771404E0,3.6990456E1,5.6481194E1,5.15329E0,1.9977638E1,3.7550888E0,2.727026E1,4.2210815E1,7.778833E1,5.676992E1,0E0,2.9829369E0,2.8298096E1,6.1836977E0,1.31710205E1,2.0637817E1,1.3340996E1,2.9826202E0,2.7825697E1,1.3050133E1,7.31369E-1,0E0,1.59599285E1,1.1957352E1,1.3285217E1,2.32341E1,4.856833E1,3.1030602E1,1.7436272E1,4.6670467E1,0E0,0E0,0E0,3.6379476E0,0E0,5.3414116E0,0E0,9.62307E-1,2.447219E1,9.105217E0,3.410182E0,8.423605E-1,8.463699E-1,2.8056946E0,1.8670525E1,2.4899767E1,1.5322823E1,2.1441591E1,0E0,0E0,2.2549292E1,1.0574435E1,9.996287E0,1.0070961E1,5.610977E0,3.0342548E0,1.9705925E0,1.1344234E1,3.64169E1,4.7479584E1,3.2917076E1,2.38387E1,5.088047E0,1.5856068E1,2.4350857E1,3.434336E1,0E0,0E0,3.2493072E0,4.4087048E0,0E0,0E0,1.9140694E1,1.689286E1,1.386673E0,1.2520477E1,4.988943E0,0E0,0E0,0E0,0E0,2.6194116E-2,5.528432E-1,2.0485382E0,1.6211277E1,2.7840676E0,7.6208115E0,1.2950882E1,2.5594704E1,7.276825E0,4.120481E0,2.982998E-1,1.1921236E1,1.1480709E1,8.672289E0,6.165457E0,7.6559954E0,5.4744596E0,7.307373E0,6.443309E0,1.06081915E1,5.8202744E0,1.0151832E0,1.1552048E0,1.58674E-1,2.1901379E0,3.422358E0,1.7067657E1,1.5902123E0,1.16931E1,4.9198914E1,4.7787354E1,8.358647E0,2.8971436E1,4.82241E1,7.921485E0,1.7771977E0,1.5869141E0,0E0,3.8422518E0,1.4282593E1,5.2452416E0,0E0,2.2990448E1,0E0,2.110691E-1,5.2614975E0,1.1087646E0,1.1336868E1,4.059632E1,1.5225437E1,1.701214E0,1.2536469E0,0E0,8.007959E0,6.6150208E0,2.0873384E0,0E0,0E0,0E0,1.1933729E-1,4.939103E-2,6.9856567E0,1.2542114E0,0E0,0E0,0E0,0E0,0E0,0E0,0E0,0E0,0E0,0E0,0E0,0E0,0E0,0E0,0E0,0E0,0E0,0E0,0E0,0E0,0E0,0E0,0E0,0E0,0E0,0E0,0E0,0E0,0E0,0E0,0E0,0E0,0E0,0E0,0E0,0E0,0E0,0E0,0E0,0E0,0E0,0E0,0E0,0E0,0E0,0E0,0E0,0E0,0E0,0E0,0E0,0E0,0E0,0E0,0E0,0E0,0E0,0E0,0E0,0E0,0E0,0E0,0E0,0E0,0E0,0E0,0E0,0E0,0E0,0E0,0E0,0E0,0E0,0E0,0E0,0E0,0E0,0E0,0E0,0E0,0E0,0E0,0E0,0E0,0E0,0E0,0E0,0E0,0E0,0E0,0E0,0E0,0E0,0E0,0E0,0E0,0E0,0E0,0E0,0E0,0E0,0E0,0E0,0E0,0E0,0E0],"parents":[2147483647,0,0,1,1,2,2,3,3,4,4,5,5,6,6,7,7,9,9,10,10,11,11,12,12,13,13,14,14,15,15,16,16,17,17,18,18,19,19,20,20,22,22,23,23,24,24,25,25,26,26,27,27,28,28,29,29,30,30,31,31,33,33,34,34,35,35,36,36,37,37,38,38,39,39,40,40,44,44,46,46,48,48,49,49,50,50,51,51,52,52,53,53,54,54,55,55,56,56,57,57,58,58,61,61,62,62,63,63,64,64,65,65,66,66,67,67,68,68,69,69,70,70,71,71,72,72,73,73,74,74,75,75,76,76,79,79,80,80,83,83,84,84,85,85,86,86,87,87,92,92,93,93,94,94,95,95,96,96,97,97,98,98,99,99,100,100,101,101,102,102,103,103,104,104,105,105,106,106,107,107,108,108,109,109,110,110,111,111,112,112,113,113,114,114,115,115,116,116,117,117,118,118,119,119,120,120,121,121,122,122,123,123,124,124,125,125,126,126,127,127,128,128,130,130,131,131,132,132,134,134,136,136,137,137,138,138,139,139,140,140,141,141,142,142,143,143,145,145,146,146,147,147,151,151,152,152,153,153,154,154],"right_children":[2,4,6,8,10,12,14,16,-1,18,20,22,24,26,28,30,32,34,36,38,40,-1,42,44,46,48,50,52,54,56,58,60,-1,62,64,66,68,70,72,74,76,-1,-1,-1,78,-1,80,-1,82,84,86,88,90,92,94,96,98,100,102,-1,-1,104,106,108,110,112,114,116,118,120,122,124,126,128,130,132,134,-1,-1,136,138,-1,-1,140,142,144,146,148,-1,-1,-1,-1,150,152,154,156,158,160,162,164,166,168,170,172,174,176,178,180,182,184,186,188,190,192,194,196,198,200,202,204,206,208,210,212,214,216,218,220,222,-1,224,226,228,-1,230,-1,232,234,236,238,240,242,244,246,-1,248,250,252,-1,-1,-1,254,256,258,260,-1,-1,-1,-1,-1,-1,-1,-1,-1,-1,-1,-1,-1,-1,-1,-1,-1,-1,-1,-1,-1,-1,-1,-1,-1,-1,-1,-1,-1,-1,-1,-1,-1,-1,-1,-1,-1,-1,-1,-1,-1,-1,-1,-1,-1,-1,-1,-1,-1,-1,-1,-1,-1,-1,-1,-1,-1,-1,-1,-1,-1,-1,-1,-1,-1,-1,-1,-1,-1,-1,-1,-1,-1,-1,-1,-1,-1,-1,-1,-1,-1,-1,-1,-1,-1,-1,-1,-1,-1,-1,-1,-1,-1,-1,-1,-1,-1,-1,-1,-1,-1,-1,-1,-1,-1,-1],"split_conditions":[8.04054E0,7.253333E2,1.52E2,7.81866E0,5.81183E2,7.253333E2,-8.76E0,1.98735E3,3.8724276E-1,1.13599E-1,6.71051E0,1.24592E3,3.4E1,3.1666667E0,5.925E0,1.6E1,2.5366667E2,1.2118182E0,1.522E2,2.2046E2,9.39802E2,-0E0,1.46E2,4.83032E1,8.2643E0,2.75E0,1.231E0,-6.34E0,6.87519E2,-3.08E0,2.7E2,1.25934E1,-0E0,3.5E0,3.7142856E0,4.97686E0,1.3333334E0,2.56E1,4.125E1,3.074448E2,3.6842105E0,-1.1283585E-1,-0E0,3.8082168E-1,-2.69E1,-4.3180823E-2,6.0625E0,-2.1168073E-3,9.7E2,2.37215E-1,1.39E3,1.476E3,3.12E2,8.74413E0,4.69376E1,4.32E2,2.65E1,4.6E1,6.55E1,-1.0043432E-1,-0E0,1.50579E1,4.1626E-2,1.21166664E2,3.35531E2,1.38E2,1.974E3,-2.241E1,7.5666666E-1,6.0625E0,3.2E1,1.2E1,-8.18E0,1.1E2,2.2133333E2,-6.7266665E0,1.3333334E0,-7.6212576E-3,1.2337321E-1,9.1476E0,1.890432E2,2.5231266E-1,7.394118E-2,1.9E2,4E2,1.7625507E1,1.2E1,4.8333335E0,-0E0,-0E0,-6.8326145E-2,8.651451E-2,9.09773E0,1.66E2,8.333333E0,9.40076E1,-1.464E1,6.9473686E0,5.3846154E0,2.35E1,6.205E0,1.31292E1,1.6927429E2,5.457143E0,4.14541E0,2.40768E2,2.6666667E0,4.96E2,2.06E0,5.34449E0,5.05909E0,4.8235292E0,5.613333E2,1.97334E-1,5.714286E0,1.41476E-1,5.51286E2,3.34776E1,7.83E0,1.49399E-1,9.1E-1,5.625E0,1.08904E3,1.49399E-1,8.1917E0,1.3E1,1.1495833E0,8.8687E0,2.31E1,2.7831915E-1,1.21764E1,7.06547E0,1.4375E1,2.560325E-1,2.1866667E2,6.1843965E-2,8.87271E0,1.137943E1,-1.9525E1,1.525E1,2.24E1,1.036E1,2.68E3,2.24E1,-0E0,8.79682E0,2.208E3,2.4437E3,-1.0732039E-2,-0E0,-1.5219862E-2,9.43814E0,1.88842E-3,8.111111E0,1.29688E1,1.4906296E-1,-7.6992816E-4,5.5196427E-2,-4.8596174E-2,-9.17353E-2,-2.0613605E-2,8.3213516E-2,-2.63228E-2,3.2248765E-1,-2.7090166E-2,-7.487634E-4,-8.112102E-2,7.5769206E-3,9.021855E-2,-0E0,-9.119264E-2,4.4038225E-2,-2.6585672E-2,-7.371332E-2,2.7376234E-3,-2.0515162E-2,-7.302628E-2,-1.0199924E-1,4.046849E-3,1.04181916E-1,-2.3089808E-3,-6.3060716E-2,1.8263763E-2,-4.300697E-2,-9.763557E-2,6.0780905E-3,-3.5735477E-2,9.447454E-2,-7.5932525E-2,1.4593236E-1,7.206426E-2,-7.875253E-2,-0E0,7.283331E-2,-0E0,9.174126E-2,-0E0,2.449671E-1,4.3223534E-2,-0E0,-5.260448E-2,1.3087004E-1,9.616959E-3,3.734357E-2,-7.7989474E-2,2.8542548E-1,-0E0,1.2655278E-1,4.869045E-2,5.581977E-2,1.8160088E-1,-1.8821912E-2,1.1460987E-1,-9.622608E-2,2.5141633E-1,1.5597148E-1,3.421348E-2,-4.8081633E-2,8.341261E-3,8.185751E-2,-2.7779598E-2,-0E0,-8.615256E-2,3.581827E-2,-7.0716776E-2,2.5078225E-1,9.6966475E-2,-3.2002572E-2,7.596325E-2,-6.3996715E-3,4.338472E-2,-0E0,-8.9474246E-2,1.7490368E-1,6.07711E-2,8.492432E-2,9.0784775E-3,-1.1105844E-2,-5.3110782E-2,1.3976426E-1,-2.0646377E-2,-0E0,2.857003E-1,-5.1741008E-2,4.6888445E-2,-9.657398E-2,-0E0,-5.8466066E-3,2.481667E-1,-5.7893302E-2,1.3793377E-2,1.8310805E-1,-0E0,-5.1987875E-2,-0E0,1.803374E-2,-0E0,-6.5069854E-2,1.5846883E-1,-8.527133E-2,-0E0],"split_indices":[1,50,66,1,5,50,22,5,0,2,1,5,24,13,19,27,24,41,55,55,5,0,24,31,19,13,41,22,5,22,24,19,0,46,13,1,24,24,24,29,13,0,0,0,22,0,26,0,51,2,50,51,51,1,29,50,15,24,27,0,0,19,2,24,5,66,50,22,41,26,26,24,22,24,51,22,24,0,0,19,29,0,0,24,66,19,24,13,0,0,0,0,1,24,39,31,22,27,13,27,19,19,55,39,1,29,39,51,41,1,1,13,51,2,13,2,5,31,19,2,41,26,5,2,19,27,41,19,31,0,19,1,46,0,24,0,1,1,22,27,27,19,50,39,0,1,51,5,0,0,0,1,2,39,19,0,0,0,0,0,0,0,0,0,0,0,0,0,0,0,0,0,0,0,0,0,0,0,0,0,0,0,0,0,0,0,0,0,0,0,0,0,0,0,0,0,0,0,0,0,0,0,0,0,0,0,0,0,0,0,0,0,0,0,0,0,0,0,0,0,0,0,0,0,0,0,0,0,0,0,0,0,0,0,0,0,0,0,0,0,0,0,0,0,0,0,0,0,0,0,0,0,0,0,0,0,0,0,0,0,0],"split_type":[0,0,0,0,0,0,0,0,0,0,0,0,0,0,0,0,0,0,0,0,0,0,0,0,0,0,0,0,0,0,0,0,0,0,0,0,0,0,0,0,0,0,0,0,0,0,0,0,0,0,0,0,0,0,0,0,0,0,0,0,0,0,0,0,0,0,0,0,0,0,0,0,0,0,0,0,0,0,0,0,0,0,0,0,0,0,0,0,0,0,0,0,0,0,0,0,0,0,0,0,0,0,0,0,0,0,0,0,0,0,0,0,0,0,0,0,0,0,0,0,0,0,0,0,0,0,0,0,0,0,0,0,0,0,0,0,0,0,0,0,0,0,0,0,0,0,0,0,0,0,0,0,0,0,0,0,0,0,0,0,0,0,0,0,0,0,0,0,0,0,0,0,0,0,0,0,0,0,0,0,0,0,0,0,0,0,0,0,0,0,0,0,0,0,0,0,0,0,0,0,0,0,0,0,0,0,0,0,0,0,0,0,0,0,0,0,0,0,0,0,0,0,0,0,0,0,0,0,0,0,0,0,0,0,0,0,0,0,0,0,0,0,0,0,0,0,0,0,0,0,0,0,0,0,0,0,0,0,0,0,0],"sum_hessian":[5E3,3.793E3,1.207E3,5.13E2,3.28E3,8.7E1,1.12E3,5.12E2,1E0,1.42E3,1.86E3,2.3E1,6.4E1,7.3E2,3.9E2,4.43E2,6.9E1,1.047E3,3.73E2,1.314E3,5.46E2,1E0,2.2E1,1.1E1,5.3E1,1.1E1,7.19E2,3.2E1,3.58E2,1.53E2,2.9E2,6.6E1,3E0,5.62E2,4.85E2,8.5E1,2.88E2,6.1E2,7.04E2,9.4E1,4.52E2,2.1E1,1E0,6E0,5E0,5E0,4.8E1,2E0,9E0,4.73E2,2.46E2,9E0,2.3E1,3E0,3.55E2,4.1E1,1.12E2,2.34E2,5.6E1,6.5E1,1E0,2.34E2,3.28E2,4.8E1,4.37E2,7.2E1,1.3E1,1.2E1,2.76E2,2.8E1,5.82E2,3.6E1,6.68E2,8E1,1.4E1,4.2E1,4.1E2,2E0,3E0,6E0,